Language model created by QuickLM on Wed Sep  6 01:55:08 EDT 2017
Copyright (c) 1996-2010 Carnegie Mellon University and Alexander I. Rudnicky

The model is in standard ARPA format, designed by Doug Paul while he was at MITRE.

The code that was used to produce this language model is available in Open Source.
Please visit http://www.speech.cs.cmu.edu/tools/ for more information

The (fixed) discount mass is 0.5. The backoffs are computed using the ratio method.
This model based on a corpus of 1887 sentences and 1889 words

\data\
ngram 1=1889
ngram 2=3774
ngram 3=1887

\1-grams:
-0.7782 </s> -0.3010
-0.7782 <s> -0.2218
-4.0539 অংশটুকু -0.2218
-4.0539 অংশীদারের -0.2218
-4.0539 অকেজো -0.2218
-4.0539 অঘ্রানে -0.2218
-4.0539 অঙ্গ -0.2218
-4.0539 অঙ্গে -0.2218
-4.0539 অট্টালিকা -0.2218
-4.0539 অতি -0.2218
-4.0539 অতিক্রম -0.2218
-4.0539 অতিথি -0.2218
-4.0539 অথবা -0.2218
-4.0539 অনুধাবণ -0.2218
-4.0539 অনুপস্থিতি -0.2218
-4.0539 অনুভব -0.2218
-4.0539 অনুমতি -0.2218
-4.0539 অনুশীলনের -0.2218
-4.0539 অনুশোচনা -0.2218
-4.0539 অনেক -0.2218
-4.0539 অনেকদিন -0.2218
-4.0539 অনেকদিনের -0.2218
-4.0539 অন্তঃত -0.2218
-4.0539 অন্তর্বাস -0.2218
-4.0539 অন্ধকার -0.2218
-4.0539 অন্য -0.2218
-4.0539 অন্যকেউ -0.2218
-4.0539 অন্যরকম -0.2218
-4.0539 অপর -0.2218
-4.0539 অপরকে -0.2218
-4.0539 অপেক্ষা -0.2218
-4.0539 অবশেষে -0.2218
-4.0539 অবশ্যই -0.2218
-4.0539 অবস্থায় -0.2218
-4.0539 অবাক -0.2218
-4.0539 অবিশ্বাস্য -0.2218
-4.0539 অভিজ্ঞতা -0.2218
-4.0539 অভিনয় -0.2218
-4.0539 অভিভাবক -0.2218
-4.0539 অভিভূত -0.2218
-4.0539 অভ্যাস -0.2218
-4.0539 অভ্যাসটা -0.2218
-4.0539 অর্ডার -0.2218
-4.0539 অলংকারের -0.2218
-4.0539 অশিক্ষিত -0.2218
-4.0539 অসম্ভব -0.2218
-4.0539 অসহায় -0.2218
-4.0539 অসাধারণ -0.2218
-4.0539 অসুখ -0.2218
-4.0539 আঁচল -0.2218
-4.0539 আঁট-সাঁটে -0.2218
-4.0539 আকার -0.2218
-4.0539 আকাশ -0.2218
-4.0539 আগ -0.2218
-4.0539 আগুন -0.2218
-4.0539 আগুনে -0.2218
-4.0539 আগের -0.2218
-4.0539 আঙিনাতে -0.2218
-4.0539 আঙ্কেল -0.2218
-4.0539 আঙ্কেলকে -0.2218
-4.0539 আঙ্কেলের -0.2218
-4.0539 আচরণ -0.2218
-4.0539 আচ্ছা -0.2218
-4.0539 আছি -0.2218
-4.0539 আছে -0.2218
-4.0539 আছেন -0.2218
-4.0539 আজ -0.2218
-4.0539 আজ-কাল -0.2218
-4.0539 আজকে -0.2218
-4.0539 আজকের -0.2218
-4.0539 আজকেরটা -0.2218
-4.0539 আজব -0.2218
-4.0539 আট -0.2218
-4.0539 আত্মহত্যা -0.2218
-4.0539 আত্মা -0.2218
-4.0539 আনছি -0.2218
-4.0539 আনন্দ -0.2218
-4.0539 আনন্দটা -0.2218
-4.0539 আনন্দিত -0.2218
-4.0539 আনন্দের -0.2218
-4.0539 আনলাম -0.2218
-4.0539 আনো -0.2218
-4.0539 আন্টি -0.2218
-4.0539 আন্টিকে -0.2218
-4.0539 আন্টির -0.2218
-4.0539 আপনাকে -0.2218
-4.0539 আপনাদের -0.2218
-4.0539 আপনার -0.2218
-4.0539 আপনারও -0.2218
-4.0539 আপনারা -0.2218
-4.0539 আপনি -0.2218
-4.0539 আপনিও -0.2218
-4.0539 আফিসারদের -0.2218
-4.0539 আবর্জনায় -0.2218
-4.0539 আবার -0.2218
-4.0539 আবারও -0.2218
-4.0539 আবেগ -0.2218
-4.0539 আবেগের -0.2218
-4.0539 আমন্ত্রণ -0.2218
-4.0539 আমরা -0.2218
-4.0539 আমাকেও -0.2218
-4.0539 আমাদের -0.2218
-4.0539 আমার -0.2218
-4.0539 আমায় -0.2218
-4.0539 আমি -0.2218
-4.0539 আমিই -0.2218
-4.0539 আমিও -0.2218
-4.0539 আমের -0.2218
-4.0539 আর -0.2218
-4.0539 আরও -0.2218
-4.0539 আরম্ভ -0.2218
-4.0539 আরেক -0.2218
-4.0539 আরেকটা -0.2218
-4.0539 আরেকবার -0.2218
-4.0539 আর্ট -0.2218
-4.0539 আলো -0.2218
-4.0539 আশা -0.2218
-4.0539 আশাহীন -0.2218
-4.0539 আশে-পাশে -0.2218
-4.0539 আসক্ত -0.2218
-4.0539 আসছি -0.2218
-4.0539 আসছে -0.2218
-4.0539 আসতে -0.2218
-4.0539 আসতো -0.2218
-4.0539 আসবে -0.2218
-4.0539 আসল -0.2218
-4.0539 আসলে -0.2218
-4.0539 আসলেই -0.2218
-4.0539 আসা -0.2218
-4.0539 আসাই -0.2218
-4.0539 আসার -0.2218
-4.0539 আসি -0.2218
-4.0539 আসে -0.2218
-4.0539 আস্ত -0.2218
-4.0539 আস্তে -0.2218
-4.0539 আাবা*টার -0.2218
-4.0539 আড়ালে -0.2218
-4.0539 ইংরেজ -0.2218
-4.0539 ইংল্যান্ড -0.2218
-4.0539 ইংল্যান্ডের -0.2218
-4.0539 ইচ্ছে -0.2218
-4.0539 ইম্পেরিয়াল -0.2218
-4.0539 ইয়েন -0.2218
-4.0539 উচিত -0.2218
-4.0539 উজ্জ্বল -0.2218
-4.0539 উঠবো -0.2218
-4.0539 উঠানোর -0.2218
-4.0539 উথলে -0.2218
-4.0539 উদ্দাম -0.2218
-4.0539 উদ্দেশ্যে -0.2218
-4.0539 উপগৃহ -0.2218
-4.0539 উপধাবন -0.2218
-4.0539 উপর -0.2218
-4.0539 উপরে -0.2218
-4.0539 উপরের -0.2218
-4.0539 উপলক্ষ্যে -0.2218
-4.0539 উপহার -0.2218
-4.0539 উর্ধ্ধে -0.2218
-4.0539 উলঙ্গ -0.2218
-4.0539 উষ্ণ -0.2218
-4.0539 এ -0.2218
-4.0539 এঁকেছে -0.2218
-4.0539 এঁটেছে -0.2218
-4.0539 এই -0.2218
-4.0539 এইক্ষেত্রে -0.2218
-4.0539 এইতো -0.2218
-4.0539 এইদিকে -0.2218
-4.0539 এক -0.2218
-4.0539 একই -0.2218
-4.0539 একজন -0.2218
-4.0539 একজনে -0.2218
-4.0539 একজোড়া -0.2218
-4.0539 একটা -0.2218
-4.0539 একটানে -0.2218
-4.0539 একটু -0.2218
-4.0539 একটুও -0.2218
-4.0539 একদম -0.2218
-4.0539 একদমই -0.2218
-4.0539 একদিন -0.2218
-4.0539 একপক্ষ -0.2218
-4.0539 একবার -0.2218
-4.0539 একবারও -0.2218
-4.0539 একমাত্র -0.2218
-4.0539 একসাথে -0.2218
-4.0539 একা -0.2218
-4.0539 একাই -0.2218
-4.0539 একে -0.2218
-4.0539 একেবারে -0.2218
-4.0539 এক্ষুনি -0.2218
-4.0539 এখন -0.2218
-4.0539 এখনও -0.2218
-4.0539 এখনকার -0.2218
-4.0539 এখনি -0.2218
-4.0539 এখান -0.2218
-4.0539 এখানকার -0.2218
-4.0539 এখানে -0.2218
-4.0539 এগুলো -0.2218
-4.0539 এজন্য -0.2218
-4.0539 এজন্যই -0.2218
-4.0539 এটা -0.2218
-4.0539 এটাই -0.2218
-4.0539 এটাও -0.2218
-4.0539 এটাকে -0.2218
-4.0539 এটার -0.2218
-4.0539 এটি -0.2218
-4.0539 এত -0.2218
-4.0539 এতই -0.2218
-4.0539 এতকিছু -0.2218
-4.0539 এতক্ষণে -0.2218
-4.0539 এতিম -0.2218
-4.0539 এদের -0.2218
-4.0539 এদেশটা -0.2218
-4.0539 এনে -0.2218
-4.0539 এনেছি -0.2218
-4.0539 এনেছো -0.2218
-4.0539 এন্টিকগুলো -0.2218
-4.0539 এবং -0.2218
-4.0539 এবার -0.2218
-4.0539 এভাবে -0.2218
-4.0539 এমন -0.2218
-4.0539 এমনকি -0.2218
-4.0539 এমনটা -0.2218
-4.0539 এর -0.2218
-4.0539 এরকম -0.2218
-4.0539 এরকমই -0.2218
-4.0539 এরপর -0.2218
-4.0539 এরপরও -0.2218
-4.0539 এলে -0.2218
-4.0539 এলো -0.2218
-4.0539 এসব -0.2218
-4.0539 এসে -0.2218
-4.0539 এসেছি -0.2218
-4.0539 এসেছিল -0.2218
-4.0539 এসেছে -0.2218
-4.0539 এসেছেন -0.2218
-4.0539 এসো -0.2218
-4.0539 ঐ -0.2218
-4.0539 ঐসব -0.2218
-4.0539 ও -0.2218
-4.0539 ওখানে -0.2218
-4.0539 ওখানেই -0.2218
-4.0539 ওগুলো -0.2218
-4.0539 ওগুলোর -0.2218
-4.0539 ওটা -0.2218
-4.0539 ওপার -0.2218
-4.0539 ওপারে -0.2218
-4.0539 ওপাশে -0.2218
-4.0539 ওভাবেই -0.2218
-4.0539 ওর -0.2218
-4.0539 ওরকম -0.2218
-4.0539 ওহ -0.2218
-4.0539 ওয়াইন -0.2218
-4.0539 ওয়াইনের -0.2218
-4.0539 কই -0.2218
-4.0539 কখন -0.2218
-4.0539 কখনই -0.2218
-4.0539 কখনও -0.2218
-4.0539 কচি -0.2218
-4.0539 কঠিন -0.2218
-4.0539 কত -0.2218
-4.0539 কতক -0.2218
-4.0539 কতগুলো -0.2218
-4.0539 কথা -0.2218
-4.0539 কথাই -0.2218
-4.0539 কথাটা -0.2218
-4.0539 কথায় -0.2218
-4.0539 কম -0.2218
-4.0539 কম্বল -0.2218
-4.0539 কর -0.2218
-4.0539 করছি -0.2218
-4.0539 করছে -0.2218
-4.0539 করছেই -0.2218
-4.0539 করছেন -0.2218
-4.0539 করছো -0.2218
-4.0539 করত -0.2218
-4.0539 করতে -0.2218
-4.0539 করতো -0.2218
-4.0539 করবে -0.2218
-4.0539 করবেই -0.2218
-4.0539 করবেন -0.2218
-4.0539 করবো -0.2218
-4.0539 করলে -0.2218
-4.0539 করলেও -0.2218
-4.0539 করলো -0.2218
-4.0539 করা -0.2218
-4.0539 করাচ্ছো -0.2218
-4.0539 করাতো -0.2218
-4.0539 করান -0.2218
-4.0539 করার -0.2218
-4.0539 করায় -0.2218
-4.0539 করি -0.2218
-4.0539 করুক -0.2218
-4.0539 করুন -0.2218
-4.0539 করে -0.2218
-4.0539 করেছি -0.2218
-4.0539 করেছিল -0.2218
-4.0539 করেছিলাম -0.2218
-4.0539 করেছিলেন -0.2218
-4.0539 করেছে -0.2218
-4.0539 করেছো -0.2218
-4.0539 করেন -0.2218
-4.0539 করো -0.2218
-4.0539 কর্তব্য -0.2218
-4.0539 কর্তা -0.2218
-4.0539 কর্তার -0.2218
-4.0539 কল্পনা -0.2218
-4.0539 কষ্ট -0.2218
-4.0539 কষ্টকর -0.2218
-4.0539 কস্ট -0.2218
-4.0539 কাঁচির -0.2218
-4.0539 কাঁটতে -0.2218
-4.0539 কাঁপছে -0.2218
-4.0539 কাঁপে -0.2218
-4.0539 কাউকে -0.2218
-4.0539 কাউকেই -0.2218
-4.0539 কাউন্ট -0.2218
-4.0539 কাউন্টকে -0.2218
-4.0539 কাউন্টের -0.2218
-4.0539 কাউন্ট্রেস -0.2218
-4.0539 কাকে -0.2218
-4.0539 কাগজপত্র -0.2218
-4.0539 কাছ -0.2218
-4.0539 কাছে -0.2218
-4.0539 কাজ -0.2218
-4.0539 কাজের -0.2218
-4.0539 কাটছে -0.2218
-4.0539 কাটিলে -0.2218
-4.0539 কাটিয়েছি -0.2218
-4.0539 কাটে -0.2218
-4.0539 কাটোঁ -0.2218
-4.0539 কান -0.2218
-4.0539 কানা-কানি -0.2218
-4.0539 কানে -0.2218
-4.0539 কানের -0.2218
-4.0539 কান্ড -0.2218
-4.0539 কান্না -0.2218
-4.0539 কাপড় -0.2218
-4.0539 কাপড়ও -0.2218
-4.0539 কামণা -0.2218
-4.0539 কামনা -0.2218
-4.0539 কামনাময়ী -0.2218
-4.0539 কামার্ত -0.2218
-4.0539 কামাড়াচ্ছে -0.2218
-4.0539 কামড় -0.2218
-4.0539 কারও -0.2218
-4.0539 কারণ -0.2218
-4.0539 কারন -0.2218
-4.0539 কারনে -0.2218
-4.0539 কাল -0.2218
-4.0539 কালেক্টর -0.2218
-4.0539 কালেক্টরদের -0.2218
-4.0539 কাহিল -0.2218
-4.0539 কি -0.2218
-4.0539 কিউট -0.2218
-4.0539 কিছু -0.2218
-4.0539 কিছুই -0.2218
-4.0539 কিছুক্ষন -0.2218
-4.0539 কিছুটা -0.2218
-4.0539 কিছুদিনের -0.2218
-4.0539 কিছুর -0.2218
-4.0539 কিনতাম -0.2218
-4.0539 কিনব -0.2218
-4.0539 কিনে -0.2218
-4.0539 কিন্তু -0.2218
-4.0539 কিভাবে -0.2218
-4.0539 কিসের -0.2218
-4.0539 কী -0.2218
-4.0539 কুঁচকিয়ে -0.2218
-4.0539 কুকুরের -0.2218
-4.0539 কুৎসিত -0.2218
-4.0539 কূলে -0.2218
-4.0539 কৃতজ্ঞ -0.2218
-4.0539 কে -0.2218
-4.0539 কেঁদে -0.2218
-4.0539 কেঁদেছিল -0.2218
-4.0539 কেউ -0.2218
-4.0539 কেউবা -0.2218
-4.0539 কেন -0.2218
-4.0539 কেনা -0.2218
-4.0539 কেনার -0.2218
-4.0539 কেনো -0.2218
-4.0539 কেন্দ্রটা -0.2218
-4.0539 কেবল -0.2218
-4.0539 কেমন -0.2218
-4.0539 কোথাও -0.2218
-4.0539 কোথায় -0.2218
-4.0539 কোন -0.2218
-4.0539 কোনটি -0.2218
-4.0539 কোমল -0.2218
-4.0539 কোমড় -0.2218
-4.0539 কোরিয়া -0.2218
-4.0539 কোরিয়ান -0.2218
-4.0539 কোরিয়ানে -0.2218
-4.0539 কোলে -0.2218
-4.0539 কোয়ার্টার -0.2218
-4.0539 কোয়ার্টারে -0.2218
-4.0539 ক্লাশের -0.2218
-4.0539 ক্ষতগুলো -0.2218
-4.0539 ক্ষতি -0.2218
-4.0539 ক্ষমতা -0.2218
-4.0539 ক্ষমা -0.2218
-4.0539 ক্ষুধার্ত -0.2218
-4.0539 ক্ষেতে -0.2218
-4.0539 ক্ষয় -0.2218
-4.0539 কয়েকজন -0.2218
-4.0539 কয়েকটা -0.2218
-4.0539 কয়েন -0.2218
-4.0539 খনির -0.2218
-4.0539 খবর -0.2218
-4.0539 খরচ -0.2218
-4.0539 খাঁমচে -0.2218
-4.0539 খাই -0.2218
-4.0539 খাইয়েছে -0.2218
-4.0539 খাওয়া -0.2218
-4.0539 খাওয়াতাম -0.2218
-4.0539 খাওয়ায় -0.2218
-4.0539 খাটুনি -0.2218
-4.0539 খাবার -0.2218
-4.0539 খাবে -0.2218
-4.0539 খারাপ -0.2218
-4.0539 খালি -0.2218
-4.0539 খুঁইয়ে -0.2218
-4.0539 খুঁজছে -0.2218
-4.0539 খুঁজে -0.2218
-4.0539 খুঁত -0.2218
-4.0539 খুব -0.2218
-4.0539 খুবই -0.2218
-4.0539 খুলবো -0.2218
-4.0539 খুললো -0.2218
-4.0539 খুলে -0.2218
-4.0539 খুলেছিল -0.2218
-4.0539 খুশি -0.2218
-4.0539 খেতাবটি -0.2218
-4.0539 খেতে -0.2218
-4.0539 খেয়াঘাটে -0.2218
-4.0539 খেলবো -0.2218
-4.0539 খেলাঘরে -0.2218
-4.0539 খেলাটা -0.2218
-4.0539 খেলাধুলা -0.2218
-4.0539 খেলে -0.2218
-4.0539 খেয়ে -0.2218
-4.0539 খেয়েছিল -0.2218
-4.0539 খোদা -0.2218
-4.0539 গজব -0.2218
-4.0539 গন্তব্য -0.2218
-4.0539 গন্ধ -0.2218
-4.0539 গন্ধটা -0.2218
-4.0539 গভীর -0.2218
-4.0539 গরিবের -0.2218
-4.0539 গরীব -0.2218
-4.0539 গর্ত -0.2218
-4.0539 গলার -0.2218
-4.0539 গলায় -0.2218
-4.0539 গলে -0.2218
-4.0539 গল্প -0.2218
-4.0539 গল্পটা -0.2218
-4.0539 গহনা -0.2218
-4.0539 গহনাগুলো -0.2218
-4.0539 গাছটা -0.2218
-4.0539 গাছটাকে -0.2218
-4.0539 গাছে -0.2218
-4.0539 গালা-গালি -0.2218
-4.0539 গিয়ে -0.2218
-4.0539 গিয়েছি -0.2218
-4.0539 গিয়েছিলেন -0.2218
-4.0539 গিয়েছে -0.2218
-4.0539 গিয়েছো -0.2218
-4.0539 গেলাম -0.2218
-4.0539 গেলে -0.2218
-4.0539 গো -0.2218
-4.0539 গোছাতে -0.2218
-4.0539 গোপন -0.2218
-4.0539 গোলাপি -0.2218
-4.0539 গোসল -0.2218
-4.0539 গোসলের -0.2218
-4.0539 গ্যাসীয় -0.2218
-4.0539 গ্রাস -0.2218
-4.0539 গড়গড় -0.2218
-4.0539 ঘন্টা -0.2218
-4.0539 ঘরে -0.2218
-4.0539 ঘরের -0.2218
-4.0539 ঘুম -0.2218
-4.0539 ঘুমান -0.2218
-4.0539 ঘুমাবে -0.2218
-4.0539 ঘুমাবো -0.2218
-4.0539 ঘুমিয়ে -0.2218
-4.0539 ঘুমোচ্ছে -0.2218
-4.0539 ঘুমোবে -0.2218
-4.0539 ঘুরবে -0.2218
-4.0539 ঘুরে -0.2218
-4.0539 ঘৃণা -0.2218
-4.0539 ঘোড়াকে -0.2218
-4.0539 ঘ্রাণে -0.2218
-4.0539 চ -0.2218
-4.0539 চকলেট -0.2218
-4.0539 চকলেটের -0.2218
-4.0539 চপস্টিকের -0.2218
-4.0539 চমৎকার -0.2218
-4.0539 চরণতলে -0.2218
-4.0539 চরণেতে -0.2218
-4.0539 চর্চা -0.2218
-4.0539 চলছিল -0.2218
-4.0539 চলে -0.2218
-4.0539 চলো -0.2218
-4.0539 চা -0.2218
-4.0539 চাই -0.2218
-4.0539 চাইছি -0.2218
-4.0539 চাইতাম -0.2218
-4.0539 চাইতো -0.2218
-4.0539 চাইনা -0.2218
-4.0539 চাইবে -0.2218
-4.0539 চাইল -0.2218
-4.0539 চাইলে -0.2218
-4.0539 চাও -0.2218
-4.0539 চাকরদের -0.2218
-4.0539 চাকররা -0.2218
-4.0539 চাকরানী -0.2218
-4.0539 চাকরানীও -0.2218
-4.0539 চাকরানীটা -0.2218
-4.0539 চাকরানীদের -0.2218
-4.0539 চাকরানীর -0.2218
-4.0539 চাচ্ছো -0.2218
-4.0539 চান -0.2218
-4.0539 চাপ -0.2218
-4.0539 চামচ -0.2218
-4.0539 চামচের -0.2218
-4.0539 চামড়ায় -0.2218
-4.0539 চার -0.2218
-4.0539 চাষা-ওঝার -0.2218
-4.0539 চাষার -0.2218
-4.0539 চাষি -0.2218
-4.0539 চায় -0.2218
-4.0539 চিকিৎসা -0.2218
-4.0539 চিঠি -0.2218
-4.0539 চিঠিটা -0.2218
-4.0539 চিত্তবিনোদন -0.2218
-4.0539 চিত্রকর্মে -0.2218
-4.0539 চিনছেন -0.2218
-4.0539 চিনলো -0.2218
-4.0539 চিন্তা -0.2218
-4.0539 চিন্তাশীল -0.2218
-4.0539 চিরতরে -0.2218
-4.0539 চিরদিন -0.2218
-4.0539 চিহ্ন -0.2218
-4.0539 চুক্তি -0.2218
-4.0539 চুনি -0.2218
-4.0539 চুনিও -0.2218
-4.0539 চুমু -0.2218
-4.0539 চুরি -0.2218
-4.0539 চুরির -0.2218
-4.0539 চুলের -0.2218
-4.0539 চেরী -0.2218
-4.0539 চেষ্টা -0.2218
-4.0539 চেহারা -0.2218
-4.0539 চেহারার -0.2218
-4.0539 চেয়ারে -0.2218
-4.0539 চেয়ে -0.2218
-4.0539 চেয়েছিলাম -0.2218
-4.0539 চেয়েছিলে -0.2218
-4.0539 চেয়েছিলেন -0.2218
-4.0539 চোখ -0.2218
-4.0539 চোখদুটো -0.2218
-4.0539 চোখে -0.2218
-4.0539 চোর -0.2218
-4.0539 চোরের -0.2218
-4.0539 চড়াই-উৎরাই -0.2218
-4.0539 ছবি -0.2218
-4.0539 ছাই -0.2218
-4.0539 ছায়া -0.2218
-4.0539 ছায়ায়-ঢাকা -0.2218
-4.0539 ছাড় -0.2218
-4.0539 ছাড়তে -0.2218
-4.0539 ছাড়বো -0.2218
-4.0539 ছাড়িয়ে -0.2218
-4.0539 ছিঁড়বো -0.2218
-4.0539 ছিটিয়েছিল -0.2218
-4.0539 ছিদ্র -0.2218
-4.0539 ছিল -0.2218
-4.0539 ছিলাম -0.2218
-4.0539 ছিলো -0.2218
-4.0539 ছুঁলেই -0.2218
-4.0539 ছুটে -0.2218
-4.0539 ছেলে -0.2218
-4.0539 ছেলের -0.2218
-4.0539 ছেড়ে -0.2218
-4.0539 ছোট -0.2218
-4.0539 ছোট্ট -0.2218
-4.0539 ছড়াও -0.2218
-4.0539 ছয় -0.2218
-4.0539 জগৎ -0.2218
-4.0539 জন্ম -0.2218
-4.0539 জন্মালেই -0.2218
-4.0539 জন্মেছি -0.2218
-4.0539 জন্মের -0.2218
-4.0539 জন্য -0.2218
-4.0539 জন্যও -0.2218
-4.0539 জন্যে -0.2218
-4.0539 জমাতে -0.2218
-4.0539 জরুরী -0.2218
-4.0539 জল -0.2218
-4.0539 জাঁহাপনা -0.2218
-4.0539 জান -0.2218
-4.0539 জানতে -0.2218
-4.0539 জানবো -0.2218
-4.0539 জানা -0.2218
-4.0539 জানাচ্ছি -0.2218
-4.0539 জানার -0.2218
-4.0539 জানালা -0.2218
-4.0539 জানায় -0.2218
-4.0539 জানি -0.2218
-4.0539 জানে -0.2218
-4.0539 জানেন -0.2218
-4.0539 জানো -0.2218
-4.0539 জাপান -0.2218
-4.0539 জাপানি -0.2218
-4.0539 জাপানিও -0.2218
-4.0539 জাপানিকে -0.2218
-4.0539 জাপানিটাকে -0.2218
-4.0539 জাপানিটার -0.2218
-4.0539 জাপানির -0.2218
-4.0539 জাপানে -0.2218
-4.0539 জাপানেও -0.2218
-4.0539 জাপানের -0.2218
-4.0539 জারজটা -0.2218
-4.0539 জারজটাকে -0.2218
-4.0539 জার্নির -0.2218
-4.0539 জার্মানরা -0.2218
-4.0539 জাল -0.2218
-4.0539 জাহাপঁনা -0.2218
-4.0539 জায়গা -0.2218
-4.0539 জায়গাটা -0.2218
-4.0539 জায়গার -0.2218
-4.0539 জায়গায় -0.2218
-4.0539 জিগ্যেস -0.2218
-4.0539 জিনিস -0.2218
-4.0539 জিনিসগুলো -0.2218
-4.0539 জিনিসপত্র -0.2218
-4.0539 জিহ্বা -0.2218
-4.0539 জীবন -0.2218
-4.0539 জীবন-যাপনZ -0.2218
-4.0539 জীবনটা -0.2218
-4.0539 জীবনে -0.2218
-4.0539 জীবনের -0.2218
-4.0539 জীবন্ত -0.2218
-4.0539 জুতা -0.2218
-4.0539 জুতাগুলো -0.2218
-4.0539 জুতো -0.2218
-4.0539 জুয়ায় -0.2218
-4.0539 জেনে -0.2218
-4.0539 জোর -0.2218
-4.0539 জোরে -0.2218
-4.0539 জোড়া -0.2218
-4.0539 জ্ঞানের -0.2218
-4.0539 জ্বালিস -0.2218
-4.0539 জ্বি -0.2218
-4.0539 জড়িয়ে -0.2218
-4.0539 ঝন -0.2218
-4.0539 ঝরনার -0.2218
-4.0539 ঝুলাতো -0.2218
-4.0539 ঝুলে -0.2218
-4.0539 ঝেড়ে -0.2218
-4.0539 টক -0.2218
-4.0539 টসটসে -0.2218
-4.0539 টা -0.2218
-4.0539 টাকা -0.2218
-4.0539 টাকাই -0.2218
-4.0539 টাকায় -0.2218
-4.0539 টান -0.2218
-4.0539 টানটান -0.2218
-4.0539 টানতে -0.2218
-4.0539 টিকতো -0.2218
-4.0539 টেস্টের -0.2218
-4.0539 ট্রেন -0.2218
-4.0539 ট্রেনিং -0.2218
-4.0539 ট্রেনিংটা -0.2218
-4.0539 ট্রেনিংয়ের -0.2218
-4.0539 ট্রেনে -0.2218
-4.0539 ঠান্ডা -0.2218
-4.0539 ঠিক -0.2218
-4.0539 ঠিকভাবে -0.2218
-4.0539 ঠিকমত -0.2218
-4.0539 ঠেকিও -0.2218
-4.0539 ঠোঁট -0.2218
-4.0539 ডাকা -0.2218
-4.0539 ডালে -0.2218
-4.0539 ডিউক -0.2218
-4.0539 ডেকে -0.2218
-4.0539 ডেকেছেন -0.2218
-4.0539 ঢাকের -0.2218
-4.0539 ঢুকাও -0.2218
-4.0539 ঢুকাবো -0.2218
-4.0539 ঢুকালাম -0.2218
-4.0539 ঢেকে -0.2218
-4.0539 ঢোকাও -0.2218
-4.0539 তখন -0.2218
-4.0539 তছনছ -0.2218
-4.0539 তবুও -0.2218
-4.0539 তবে -0.2218
-4.0539 তর্ক -0.2218
-4.0539 তল -0.2218
-4.0539 তা -0.2218
-4.0539 তাই -0.2218
-4.0539 তাইনা -0.2218
-4.0539 তাকাই -0.2218
-4.0539 তাকাতাম -0.2218
-4.0539 তাকাতো -0.2218
-4.0539 তাকায় -0.2218
-4.0539 তাকিয়ে -0.2218
-4.0539 তাকে -0.2218
-4.0539 তাকের -0.2218
-4.0539 তাতে -0.2218
-4.0539 তাদের -0.2218
-4.0539 তাদেরও -0.2218
-4.0539 তার -0.2218
-4.0539 তারপর -0.2218
-4.0539 তারপরও -0.2218
-4.0539 তারা -0.2218
-4.0539 তাহলে -0.2218
-4.0539 তাড়াতাড়ি -0.2218
-4.0539 তিক্ততা -0.2218
-4.0539 তিন -0.2218
-4.0539 তুই -0.2218
-4.0539 তুমি -0.2218
-4.0539 তুমিও -0.2218
-4.0539 তুলবে -0.2218
-4.0539 তুললো -0.2218
-4.0539 তুলে -0.2218
-4.0539 তুষারের -0.2218
-4.0539 তে -0.2218
-4.0539 তেমনটা -0.2218
-4.0539 তেমনটাই -0.2218
-4.0539 তেল -0.2218
-4.0539 তৈরি -0.2218
-4.0539 তৈরির -0.2218
-4.0539 তো -0.2218
-4.0539 তোতলিয়ে -0.2218
-4.0539 তোমাকেই -0.2218
-4.0539 তোমাদের -0.2218
-4.0539 তোমায় -0.2218
-4.0539 তোমার -0.2218
-4.0539 তোমারটায় -0.2218
-4.0539 তোমারি -0.2218
-4.0539 তোমায় -0.2218
-4.0539 তোমায়ও -0.2218
-4.0539 তোর -0.2218
-4.0539 তোলে -0.2218
-4.0539 ত্যাগ -0.2218
-4.0539 থাকত -0.2218
-4.0539 থাকতে -0.2218
-4.0539 থাকবে -0.2218
-4.0539 থাকলে -0.2218
-4.0539 থাকি -0.2218
-4.0539 থাকুন -0.2218
-4.0539 থাকে -0.2218
-4.0539 থাকেন -0.2218
-4.0539 থাকো -0.2218
-4.0539 থামবে -0.2218
-4.0539 থামলে -0.2218
-4.0539 থামা -0.2218
-4.0539 থামুন -0.2218
-4.0539 থুথু -0.2218
-4.0539 থুরথুরে -0.2218
-4.0539 থেকে -0.2218
-4.0539 থেকেই -0.2218
-4.0539 থেকেও -0.2218
-4.0539 থেকেছি -0.2218
-4.0539 থেমো -0.2218
-4.0539 দখলের -0.2218
-4.0539 দন্ড -0.2218
-4.0539 দম -0.2218
-4.0539 দরকার -0.2218
-4.0539 দরজা -0.2218
-4.0539 দরজার -0.2218
-4.0539 দরজায় -0.2218
-4.0539 দরদ -0.2218
-4.0539 দরদী -0.2218
-4.0539 দল -0.2218
-4.0539 দলে -0.2218
-4.0539 দাঁত -0.2218
-4.0539 দাঁড়াতে -0.2218
-4.0539 দাঁড়ান -0.2218
-4.0539 দাও -0.2218
-4.0539 দানে -0.2218
-4.0539 দাম -0.2218
-4.0539 দামি -0.2218
-4.0539 দারোয়ান -0.2218
-4.0539 দালাল -0.2218
-4.0539 দায়িত্ব -0.2218
-4.0539 দিও -0.2218
-4.0539 দিকে -0.2218
-4.0539 দিকের -0.2218
-4.0539 দিচ্ছি -0.2218
-4.0539 দিচ্ছে -0.2218
-4.0539 দিত -0.2218
-4.0539 দিতাম -0.2218
-4.0539 দিতে -0.2218
-4.0539 দিন -0.2218
-4.0539 দিব -0.2218
-4.0539 দিল -0.2218
-4.0539 দিলাম -0.2218
-4.0539 দিলে -0.2218
-4.0539 দিলেও -0.2218
-4.0539 দিলেম -0.2218
-4.0539 দিলো -0.2218
-4.0539 দিয়ে -0.2218
-4.0539 দিয়েছিল -0.2218
-4.0539 দিয়েছে -0.2218
-4.0539 দীপ -0.2218
-4.0539 দুঃখিত -0.2218
-4.0539 দুঃস্বপ্ন -0.2218
-4.0539 দুই -0.2218
-4.0539 দুজনকে -0.2218
-4.0539 দুটো -0.2218
-4.0539 দুধ -0.2218
-4.0539 দুধর্ষ -0.2218
-4.0539 দুনিয়ার -0.2218
-4.0539 দুনিয়ায় -0.2218
-4.0539 দুপুরে -0.2218
-4.0539 দুল -0.2218
-4.0539 দূর -0.2218
-4.0539 দূরে -0.2218
-4.0539 দূর্ভাগ্য -0.2218
-4.0539 দূর্লভ -0.2218
-4.0539 দৃষ্টি -0.2218
-4.0539 দে -0.2218
-4.0539 দেই -0.2218
-4.0539 দেখছি -0.2218
-4.0539 দেখছিলেন -0.2218
-4.0539 দেখছো -0.2218
-4.0539 দেখতে -0.2218
-4.0539 দেখতেই -0.2218
-4.0539 দেখবে -0.2218
-4.0539 দেখলাম -0.2218
-4.0539 দেখলে -0.2218
-4.0539 দেখা -0.2218
-4.0539 দেখাচ্ছে -0.2218
-4.0539 দেখাচ্ছো -0.2218
-4.0539 দেখাতে -0.2218
-4.0539 দেখান -0.2218
-4.0539 দেখাবে -0.2218
-4.0539 দেখি -0.2218
-4.0539 দেখে -0.2218
-4.0539 দেখেও -0.2218
-4.0539 দেখেছি -0.2218
-4.0539 দেখেছিলাম -0.2218
-4.0539 দেখেছো -0.2218
-4.0539 দেখো -0.2218
-4.0539 দেব -0.2218
-4.0539 দেবে -0.2218
-4.0539 দেবেন -0.2218
-4.0539 দেবো -0.2218
-4.0539 দেরির -0.2218
-4.0539 দেরী -0.2218
-4.0539 দেশে -0.2218
-4.0539 দেশের -0.2218
-4.0539 দেহের -0.2218
-4.0539 দেয়া -0.2218
-4.0539 দেয়ার -0.2218
-4.0539 দোকান -0.2218
-4.0539 দোভাষীর -0.2218
-4.0539 দোষ -0.2218
-4.0539 দোষী -0.2218
-4.0539 দ্বিমত -0.2218
-4.0539 দ্রুত -0.2218
-4.0539 দড়ি -0.2218
-4.0539 দয়া -0.2218
-4.0539 দয়ালু -0.2218
-4.0539 ধকলে -0.2218
-4.0539 ধন -0.2218
-4.0539 ধনী -0.2218
-4.0539 ধনীদের -0.2218
-4.0539 ধন্য -0.2218
-4.0539 ধন্যবাদ -0.2218
-4.0539 ধরতে -0.2218
-4.0539 ধরতো -0.2218
-4.0539 ধরনের -0.2218
-4.0539 ধরবে -0.2218
-4.0539 ধরা -0.2218
-4.0539 ধরাতে -0.2218
-4.0539 ধরে -0.2218
-4.0539 ধরেছো -0.2218
-4.0539 ধানে-ভরা -0.2218
-4.0539 ধার -0.2218
-4.0539 ধারাল -0.2218
-4.0539 ধীর -0.2218
-4.0539 ধীরে -0.2218
-4.0539 ধুর -0.2218
-4.0539 ধুলা -0.2218
-4.0539 ধুলামাটি -0.2218
-4.0539 ধুয়ে-মুছে -0.2218
-4.0539 ধুয়েছি -0.2218
-4.0539 ধূর্ত -0.2218
-4.0539 ধৃষ্ট -0.2218
-4.0539 ধৃষ্টতা -0.2218
-4.0539 ধেনু-চরা -0.2218
-4.0539 ধোঁয়া -0.2218
-4.0539 ধ্বংসও -0.2218
-4.0539 নই -0.2218
-4.0539 নক -0.2218
-4.0539 নকল -0.2218
-4.0539 নকলকারী -0.2218
-4.0539 নকলের -0.2218
-4.0539 নখ -0.2218
-4.0539 নজর -0.2218
-4.0539 নত -0.2218
-4.0539 নতুন -0.2218
-4.0539 নদীর -0.2218
-4.0539 নভিরও -0.2218
-4.0539 নম্র -0.2218
-4.0539 নয়নজলে -0.2218
-4.0539 নরম -0.2218
-4.0539 না -0.2218
-4.0539 নাইট -0.2218
-4.0539 নাও -0.2218
-4.0539 নাক -0.2218
-4.0539 নাকি -0.2218
-4.0539 নাছোড়বান্দা -0.2218
-4.0539 নাবিকের -0.2218
-4.0539 নাভি -0.2218
-4.0539 নাম -0.2218
-4.0539 নামবো -0.2218
-4.0539 নামে -0.2218
-4.0539 নামের -0.2218
-4.0539 নাম্বার -0.2218
-4.0539 নাহলে -0.2218
-4.0539 নি -0.2218
-4.0539 নিঃসন্তান -0.2218
-4.0539 নিকট -0.2218
-4.0539 নিগুড় -0.2218
-4.0539 নিচতলা -0.2218
-4.0539 নিচতলার -0.2218
-4.0539 নিচতলায় -0.2218
-4.0539 নিচে -0.2218
-4.0539 নিচের -0.2218
-4.0539 নিচ্ছে -0.2218
-4.0539 নিচ্ছো -0.2218
-4.0539 নিজ -0.2218
-4.0539 নিজে -0.2218
-4.0539 নিজেও -0.2218
-4.0539 নিজেকে -0.2218
-4.0539 নিজের -0.2218
-4.0539 নিন -0.2218
-4.0539 নিপল -0.2218
-4.0539 নির্জীব -0.2218
-4.0539 নিল -0.2218
-4.0539 নিলামে -0.2218
-4.0539 নিলামের -0.2218
-4.0539 নিশ্চুপ -0.2218
-4.0539 নিষিদ্ধ -0.2218
-4.0539 নিষেধ -0.2218
-4.0539 নিষ্ঠুর -0.2218
-4.0539 নিষ্ঠুরতা -0.2218
-4.0539 নিয়ে -0.2218
-4.0539 নিয়েই -0.2218
-4.0539 নিয়েছিলাম -0.2218
-4.0539 নিয়েছিলেন -0.2218
-4.0539 নিয়োজিত -0.2218
-4.0539 নীরব -0.2218
-4.0539 নীল -0.2218
-4.0539 নীলাকান্তমনি -0.2218
-4.0539 নুনু -0.2218
-4.0539 নেই -0.2218
-4.0539 নেবে -0.2218
-4.0539 নেবো -0.2218
-4.0539 নেয় -0.2218
-4.0539 নেয়া -0.2218
-4.0539 নেয়ার -0.2218
-4.0539 নোংরা -0.2218
-4.0539 নোট -0.2218
-4.0539 নোনতায় -0.2218
-4.0539 নৌকা -0.2218
-4.0539 ন্যায় -0.2218
-4.0539 নড়লে -0.2218
-4.0539 নয় -0.2218
-4.0539 পকেটমার -0.2218
-4.0539 পকেটমারা -0.2218
-4.0539 পক্ষ -0.2218
-4.0539 পছন্দ -0.2218
-4.0539 পছন্দের -0.2218
-4.0539 পটানো -0.2218
-4.0539 পটানোর -0.2218
-4.0539 পটাবে -0.2218
-4.0539 পটিয়ে -0.2218
-4.0539 পটু -0.2218
-4.0539 পথ -0.2218
-4.0539 পথে -0.2218
-4.0539 পদ্মফুলের -0.2218
-4.0539 পর -0.2218
-4.0539 পরস্পর -0.2218
-4.0539 পরিকল্পনা -0.2218
-4.0539 পরিচয়ে -0.2218
-4.0539 পরিণত -0.2218
-4.0539 পরিবারও -0.2218
-4.0539 পরিবারের -0.2218
-4.0539 পরিস্কার -0.2218
-4.0539 পরে -0.2218
-4.0539 পরের -0.2218
-4.0539 পরেরটা -0.2218
-4.0539 পর্যন্তZ -0.2218
-4.0539 পল্লীবাটে -0.2218
-4.0539 পশ্চিমা -0.2218
-4.0539 পা -0.2218
-4.0539 পাঁচ -0.2218
-4.0539 পাইকারি -0.2218
-4.0539 পাকা -0.2218
-4.0539 পাখি-ডাকা -0.2218
-4.0539 পাগল -0.2218
-4.0539 পাগলাগারদে -0.2218
-4.0539 পাচ্ছে -0.2218
-4.0539 পাছা -0.2218
-4.0539 পাছায় -0.2218
-4.0539 পাঠাও -0.2218
-4.0539 পাঠাচ্ছি -0.2218
-4.0539 পাঠাতে -0.2218
-4.0539 পাঠানোর -0.2218
-4.0539 পাঠাব -0.2218
-4.0539 পাঠাবো -0.2218
-4.0539 পাঠিয়ে -0.2218
-4.0539 পাঠিয়েছে -0.2218
-4.0539 পাতলা -0.2218
-4.0539 পাতো -0.2218
-4.0539 পান -0.2218
-4.0539 পাবার -0.2218
-4.0539 পাবে -0.2218
-4.0539 পাবো -0.2218
-4.0539 পায়ের -0.2218
-4.0539 পার -0.2218
-4.0539 পারছেন -0.2218
-4.0539 পারছো -0.2218
-4.0539 পারত -0.2218
-4.0539 পারতাম -0.2218
-4.0539 পারতেন -0.2218
-4.0539 পারদ -0.2218
-4.0539 পারবে -0.2218
-4.0539 পারবো -0.2218
-4.0539 পারলে -0.2218
-4.0539 পারি -0.2218
-4.0539 পারে -0.2218
-4.0539 পারেন -0.2218
-4.0539 পারো -0.2218
-4.0539 পার্থক্য -0.2218
-4.0539 পালক -0.2218
-4.0539 পালন -0.2218
-4.0539 পালাই -0.2218
-4.0539 পালাতে -0.2218
-4.0539 পালানের -0.2218
-4.0539 পালাবো -0.2218
-4.0539 পালিয়ে -0.2218
-4.0539 পাশে -0.2218
-4.0539 পাশের -0.2218
-4.0539 পাসপোর্ট -0.2218
-4.0539 পাহারা -0.2218
-4.0539 পাহাড়টা -0.2218
-4.0539 পাড়ি -0.2218
-4.0539 পায় -0.2218
-4.0539 পায়ে -0.2218
-4.0539 পায়ের -0.2218
-4.0539 পিষে -0.2218
-4.0539 পুজো -0.2218
-4.0539 পুতুল -0.2218
-4.0539 পুতুলটা -0.2218
-4.0539 পুরুষ -0.2218
-4.0539 পুরুষটা -0.2218
-4.0539 পুরো -0.2218
-4.0539 পুরোদস্তুর -0.2218
-4.0539 পুরোনো -0.2218
-4.0539 পুরোপুরি -0.2218
-4.0539 পূর্ণিমার -0.2218
-4.0539 পূর্ণিমায় -0.2218
-4.0539 পূর্ব-পশ্চিমের -0.2218
-4.0539 পূর্বে -0.2218
-4.0539 পেইটিং -0.2218
-4.0539 পেইনটিং -0.2218
-4.0539 পেইনটিংকে -0.2218
-4.0539 পেইন্টিং -0.2218
-4.0539 পেচালো -0.2218
-4.0539 পেছনে -0.2218
-4.0539 পেটাবো -0.2218
-4.0539 পেত -0.2218
-4.0539 পেতাম -0.2218
-4.0539 পেতে -0.2218
-4.0539 পেরে -0.2218
-4.0539 পেরেছি -0.2218
-4.0539 পেলে -0.2218
-4.0539 পেয়েছিল -0.2218
-4.0539 পেয়েছেন -0.2218
-4.0539 পেয়ো -0.2218
-4.0539 পোষণ -0.2218
-4.0539 পোষাক -0.2218
-4.0539 পোষ্য -0.2218
-4.0539 পৌছল -0.2218
-4.0539 পৌছানো -0.2218
-4.0539 পৌছায় -0.2218
-4.0539 পৌছে -0.2218
-4.0539 পৌছেছিলেন -0.2218
-4.0539 প্রকৃতির -0.2218
-4.0539 প্রচলন -0.2218
-4.0539 প্রচুর -0.2218
-4.0539 প্রতারণা -0.2218
-4.0539 প্রতারণার -0.2218
-4.0539 প্রতি -0.2218
-4.0539 প্রতিক্ষা -0.2218
-4.0539 প্রতিদিন -0.2218
-4.0539 প্রত্যাখ্যান -0.2218
-4.0539 প্রত্যাশা -0.2218
-4.0539 প্রত্যেক -0.2218
-4.0539 প্রথমে -0.2218
-4.0539 প্রযোজ্য -0.2218
-4.0539 প্রশংসা -0.2218
-4.0539 প্রস্তাব -0.2218
-4.0539 প্রস্তুত -0.2218
-4.0539 প্রাক্তন -0.2218
-4.0539 প্রাণবন্ত -0.2218
-4.0539 প্রাণে -0.2218
-4.0539 প্রাপ্ত -0.2218
-4.0539 প্রায় -0.2218
-4.0539 প্রায়ই -0.2218
-4.0539 প্রিয় -0.2218
-4.0539 প্রেম -0.2218
-4.0539 প্রেমে -0.2218
-4.0539 প্রেমের -0.2218
-4.0539 প্লিজ -0.2218
-4.0539 পড়ছে -0.2218
-4.0539 পড়তে -0.2218
-4.0539 পড়বে -0.2218
-4.0539 পড়বো -0.2218
-4.0539 পড়লে -0.2218
-4.0539 পড়লেও -0.2218
-4.0539 পড়া -0.2218
-4.0539 পড়া-লেখা -0.2218
-4.0539 পড়াতে -0.2218
-4.0539 পড়ানো -0.2218
-4.0539 পড়ায় -0.2218
-4.0539 পড়ুক -0.2218
-4.0539 পড়ে -0.2218
-4.0539 পড়েছিল -0.2218
-4.0539 পড়েছিলাম -0.2218
-4.0539 পড়েছো -0.2218
-4.0539 পড়ো -0.2218
-4.0539 পয়েন্ট -0.2218
-4.0539 ফন্দি -0.2218
-4.0539 ফল -0.2218
-4.0539 ফলটার -0.2218
-4.0539 ফসকাতো -0.2218
-4.0539 ফাঁশি -0.2218
-4.0539 ফাঁসি -0.2218
-4.0539 ফাগুনে -0.2218
-4.0539 ফিরবে -0.2218
-4.0539 ফিরলে -0.2218
-4.0539 ফিরে -0.2218
-4.0539 ফিসফিস -0.2218
-4.0539 ফুটতো -0.2218
-4.0539 ফুটন্ত -0.2218
-4.0539 ফুরালে -0.2218
-4.0539 ফুল -0.2218
-4.0539 ফেরা -0.2218
-4.0539 ফেরীতে -0.2218
-4.0539 ফেরে -0.2218
-4.0539 ফেলতে -0.2218
-4.0539 ফেলবে -0.2218
-4.0539 ফেলবো -0.2218
-4.0539 ফেললাম -0.2218
-4.0539 ফেলে -0.2218
-4.0539 ফেলেছো -0.2218
-4.0539 ফোঁটা -0.2218
-4.0539 ফোন -0.2218
-4.0539 ফ্যান্টাসি -0.2218
-4.0539 ফ্রান্সে -0.2218
-4.0539 বংশের -0.2218
-4.0539 বই -0.2218
-4.0539 বইগুলো -0.2218
-4.0539 বইপ্রেমী -0.2218
-4.0539 বইপ্রেমীদের -0.2218
-4.0539 বইয়ে -0.2218
-4.0539 বইয়ের -0.2218
-4.0539 বছর -0.2218
-4.0539 বছরে -0.2218
-4.0539 বজায় -0.2218
-4.0539 বজ্জা -0.2218
-4.0539 বজ্জাত -0.2218
-4.0539 বটের -0.2218
-4.0539 বদনখানি -0.2218
-4.0539 বদলে -0.2218
-4.0539 বদলেছে -0.2218
-4.0539 বনবেন -0.2218
-4.0539 বনে -0.2218
-4.0539 বন্ডে -0.2218
-4.0539 বন্দি -0.2218
-4.0539 বন্দীময় -0.2218
-4.0539 বন্ধ -0.2218
-4.0539 বন্ধু -0.2218
-4.0539 বরং -0.2218
-4.0539 বরাবরই -0.2218
-4.0539 বল -0.2218
-4.0539 বলছি -0.2218
-4.0539 বলছে -0.2218
-4.0539 বলত -0.2218
-4.0539 বলতে -0.2218
-4.0539 বলতো -0.2218
-4.0539 বলবে -0.2218
-4.0539 বলবেন -0.2218
-4.0539 বলবো -0.2218
-4.0539 বললে -0.2218
-4.0539 বললো -0.2218
-4.0539 বলা -0.2218
-4.0539 বলি -0.2218
-4.0539 বলুন -0.2218
-4.0539 বলে -0.2218
-4.0539 বলেছি -0.2218
-4.0539 বলেছিল -0.2218
-4.0539 বলেছে -0.2218
-4.0539 বলেছেন -0.2218
-4.0539 বলেন -0.2218
-4.0539 বলো -0.2218
-4.0539 বশ -0.2218
-4.0539 বসবো -0.2218
-4.0539 বসাবো -0.2218
-4.0539 বসিয়েছে -0.2218
-4.0539 বসে -0.2218
-4.0539 বহিঃপ্রকাশ -0.2218
-4.0539 বহিস্কার -0.2218
-4.0539 বহুদূর -0.2218
-4.0539 বা* -0.2218
-4.0539 বাঁচিয়ে -0.2218
-4.0539 বাঁধন -0.2218
-4.0539 বাঁধা -0.2218
-4.0539 বাঁধানো -0.2218
-4.0539 বাঁশি -0.2218
-4.0539 বাংলা -0.2218
-4.0539 বাংলো -0.2218
-4.0539 বাইরে -0.2218
-4.0539 বাগদত্তা -0.2218
-4.0539 বাচ্চা -0.2218
-4.0539 বাচ্চাকে -0.2218
-4.0539 বাচ্চাদের -0.2218
-4.0539 বাচ্চারা -0.2218
-4.0539 বাজায় -0.2218
-4.0539 বাজি -0.2218
-4.0539 বাজে -0.2218
-4.0539 বাণী -0.2218
-4.0539 বাতাস -0.2218
-4.0539 বাতি -0.2218
-4.0539 বানাচ্ছিলাম -0.2218
-4.0539 বানালো -0.2218
-4.0539 বানিয়েছিল -0.2218
-4.0539 বাবা -0.2218
-4.0539 বাবার -0.2218
-4.0539 বাসর -0.2218
-4.0539 বাস্তবে -0.2218
-4.0539 বাহন -0.2218
-4.0539 বাহু -0.2218
-4.0539 বাহুতে -0.2218
-4.0539 বাড়ছে -0.2218
-4.0539 বাড়া -0.2218
-4.0539 বাড়াটা -0.2218
-4.0539 বাড়ি -0.2218
-4.0539 বাড়িই -0.2218
-4.0539 বাড়িওয়ালিকে -0.2218
-4.0539 বাড়িতে -0.2218
-4.0539 বাড়িতেও -0.2218
-4.0539 বাড়ির -0.2218
-4.0539 বিক্রি -0.2218
-4.0539 বিক্রিই -0.2218
-4.0539 বিক্রেতার -0.2218
-4.0539 বিখ্যাত -0.2218
-4.0539 বিছানা -0.2218
-4.0539 বিছানায় -0.2218
-4.0539 বিছায়েছ -0.2218
-4.0539 বিদ্যুত -0.2218
-4.0539 বিদ্যুতের -0.2218
-4.0539 বিদ্যুৎ -0.2218
-4.0539 বিদ্র -0.2218
-4.0539 বিধায় -0.2218
-4.0539 বিনিময়ে -0.2218
-4.0539 বিভিন্ন -0.2218
-4.0539 বিরহের -0.2218
-4.0539 বিরোধীতা -0.2218
-4.0539 বিশেষ -0.2218
-4.0539 বিশ্বাস -0.2218
-4.0539 বিষয়গুলো -0.2218
-4.0539 বিষয়টা -0.2218
-4.0539 বিয়ার -0.2218
-4.0539 বিয়ে -0.2218
-4.0539 বিয়েতে -0.2218
-4.0539 বিয়ের -0.2218
-4.0539 বুঝতে -0.2218
-4.0539 বুঝবে -0.2218
-4.0539 বুঝবো -0.2218
-4.0539 বুঝলাম -0.2218
-4.0539 বুঝে -0.2218
-4.0539 বুঝেছো -0.2218
-4.0539 বুদ্ধি -0.2218
-4.0539 বুড়োকে -0.2218
-4.0539 বৃদ্ধ -0.2218
-4.0539 বৃদ্ধটার -0.2218
-4.0539 বৃষ্টি -0.2218
-4.0539 বৃস্টি -0.2218
-4.0539 বেঁচে -0.2218
-4.0539 বেঈমানি -0.2218
-4.0539 বেচারী -0.2218
-4.0539 বেচারীর -0.2218
-4.0539 বেছে -0.2218
-4.0539 বেতন -0.2218
-4.0539 বের -0.2218
-4.0539 বেরুলো -0.2218
-4.0539 বেল -0.2218
-4.0539 বেলা -0.2218
-4.0539 বেশি -0.2218
-4.0539 বেশ্যালয়ের -0.2218
-4.0539 বেহুঁশ -0.2218
-4.0539 বেড়ায় -0.2218
-4.0539 বেড়েছে -0.2218
-4.0539 বোকা -0.2218
-4.0539 বোকাটে -0.2218
-4.0539 বোঝে -0.2218
-4.0539 বোতামগুলো -0.2218
-4.0539 বোধহয় -0.2218
-4.0539 বোনের -0.2218
-4.0539 ব্যবস্থা -0.2218
-4.0539 ব্যবহার -0.2218
-4.0539 ব্যর্থ -0.2218
-4.0539 ব্যস্ত -0.2218
-4.0539 ব্যাথ্যা -0.2218
-4.0539 ব্যাথ্যার -0.2218
-4.0539 ব্যাবসার -0.2218
-4.0539 ব্যাভিচার -0.2218
-4.0539 ব্রাশ -0.2218
-4.0539 বড় -0.2218
-4.0539 বয়সে -0.2218
-4.0539 ভদ্র -0.2218
-4.0539 ভদ্রঘরের -0.2218
-4.0539 ভদ্রলোক -0.2218
-4.0539 ভদ্রলোকদের -0.2218
-4.0539 ভদ্রলোকের -0.2218
-4.0539 ভবন -0.2218
-4.0539 ভবিষ্যত -0.2218
-4.0539 ভরা -0.2218
-4.0539 ভর্তি -0.2218
-4.0539 ভাঁজের -0.2218
-4.0539 ভাই -0.2218
-4.0539 ভাগ -0.2218
-4.0539 ভাগনিকে -0.2218
-4.0539 ভাগ্নীখোর -0.2218
-4.0539 ভাগ্য -0.2218
-4.0539 ভাগ্যবতী -0.2218
-4.0539 ভাগ্যবান -0.2218
-4.0539 ভাঙ্গা -0.2218
-4.0539 ভাব -0.2218
-4.0539 ভাবছি -0.2218
-4.0539 ভাবছো -0.2218
-4.0539 ভাবতে -0.2218
-4.0539 ভাবতেই -0.2218
-4.0539 ভাববে -0.2218
-4.0539 ভাবি -0.2218
-4.0539 ভাবে -0.2218
-4.0539 ভাবো -0.2218
-4.0539 ভাল -0.2218
-4.0539 ভালবাস -0.2218
-4.0539 ভালবাসবেন -0.2218
-4.0539 ভালবাসি -0.2218
-4.0539 ভালবাসে -0.2218
-4.0539 ভালবাসেন -0.2218
-4.0539 ভালভাবে -0.2218
-4.0539 ভালোবাসি -0.2218
-4.0539 ভাল্লাগে -0.2218
-4.0539 ভাষা -0.2218
-4.0539 ভাসি -0.2218
-4.0539 ভিজে -0.2218
-4.0539 ভিড়েছি -0.2218
-4.0539 ভীত -0.2218
-4.0539 ভুত -0.2218
-4.0539 ভুল -0.2218
-4.0539 ভুলবো -0.2218
-4.0539 ভূষণ -0.2218
-4.0539 ভেঙ্গে -0.2218
-4.0539 ভেজা -0.2218
-4.0539 ভেজাবে -0.2218
-4.0539 ভেতর -0.2218
-4.0539 ভেতরে -0.2218
-4.0539 ভেতরের -0.2218
-4.0539 ভেবছো -0.2218
-4.0539 ভেবে -0.2218
-4.0539 ভেবেছি -0.2218
-4.0539 ভেবেছিলাম -0.2218
-4.0539 ভেবেছো -0.2218
-4.0539 ভেবো -0.2218
-4.0539 ভেস্তে -0.2218
-4.0539 ভোগ -0.2218
-4.0539 ভ্রমণের -0.2218
-4.0539 ভ্রমনের -0.2218
-4.0539 ভয় -0.2218
-4.0539 ভয়ে -0.2218
-4.0539 ভয়ের -0.2218
-4.0539 মজা -0.2218
-4.0539 মজাই -0.2218
-4.0539 মডেলটা -0.2218
-4.0539 মত -0.2218
-4.0539 মতো -0.2218
-4.0539 মদ -0.2218
-4.0539 মধুর -0.2218
-4.0539 মধ্যবিত্ত -0.2218
-4.0539 মধ্যরাতে -0.2218
-4.0539 মধ্যে -0.2218
-4.0539 মধ্যেও -0.2218
-4.0539 মন -0.2218
-4.0539 মনকে -0.2218
-4.0539 মনিবের -0.2218
-4.0539 মনে -0.2218
-4.0539 মনের -0.2218
-4.0539 মরতে -0.2218
-4.0539 মরবেন -0.2218
-4.0539 মরি -0.2218
-4.0539 মরেছিল -0.2218
-4.0539 মরেছে -0.2218
-4.0539 মলিন -0.2218
-4.0539 মসৃণ -0.2218
-4.0539 মহিলা -0.2218
-4.0539 মহিলাটা -0.2218
-4.0539 মহিলাটার -0.2218
-4.0539 মহিলাটি -0.2218
-4.0539 মহিলাদের -0.2218
-4.0539 মহিলার -0.2218
-4.0539 মহিলারা -0.2218
-4.0539 মা -0.2218
-4.0539 মাংস -0.2218
-4.0539 মাকে -0.2218
-4.0539 মাখি -0.2218
-4.0539 মাগি -0.2218
-4.0539 মাগির -0.2218
-4.0539 মাগীদের -0.2218
-4.0539 মাঝ -0.2218
-4.0539 মাঝে -0.2218
-4.0539 মাঠে -0.2218
-4.0539 মাথা -0.2218
-4.0539 মাথার -0.2218
-4.0539 মাথায় -0.2218
-4.0539 মান-ইজ্জত -0.2218
-4.0539 মানা -0.2218
-4.0539 মানি -0.2218
-4.0539 মানিক -0.2218
-4.0539 মানিয়ে -0.2218
-4.0539 মানুষকে -0.2218
-4.0539 মানে -0.2218
-4.0539 মাফ -0.2218
-4.0539 মায়া -0.2218
-4.0539 মার -0.2218
-4.0539 মারা -0.2218
-4.0539 মারাত্বক -0.2218
-4.0539 মালের -0.2218
-4.0539 মাশরুম -0.2218
-4.0539 মাসে -0.2218
-4.0539 মাসের -0.2218
-4.0539 মাস্তান -0.2218
-4.0539 মায়া -0.2218
-4.0539 মায়ের -0.2218
-4.0539 মি -0.2218
-4.0539 মিথ্যা -0.2218
-4.0539 মিথ্যে -0.2218
-4.0539 মিনিট -0.2218
-4.0539 মিনিটে -0.2218
-4.0539 মিনিটের -0.2218
-4.0539 মিল -0.2218
-4.0539 মিলিওন -0.2218
-4.0539 মিলিয়ে -0.2218
-4.0539 মিস -0.2218
-4.0539 মিসেস -0.2218
-4.0539 মিস্ -0.2218
-4.0539 মিস্টি -0.2218
-4.0539 মিস্টিতে -0.2218
-4.0539 মুক্ত -0.2218
-4.0539 মুক্তি -0.2218
-4.0539 মুখ -0.2218
-4.0539 মুখে -0.2218
-4.0539 মুখের -0.2218
-4.0539 মুখোমুখি -0.2218
-4.0539 মুহূর্তে -0.2218
-4.0539 মুহূর্তের -0.2218
-4.0539 মূর্তিস্তম্ভের -0.2218
-4.0539 মূলে -0.2218
-4.0539 মূল্য -0.2218
-4.0539 মূল্যবান -0.2218
-4.0539 মৃত -0.2218
-4.0539 মৃদু -0.2218
-4.0539 মেক-আপ -0.2218
-4.0539 মেটানো -0.2218
-4.0539 মেনে -0.2218
-4.0539 মেরামত -0.2218
-4.0539 মেরেছিলে -0.2218
-4.0539 মেলে -0.2218
-4.0539 মেয়ে -0.2218
-4.0539 মেয়েকে -0.2218
-4.0539 মেয়েটা -0.2218
-4.0539 মেয়েটাকে -0.2218
-4.0539 মেয়েটির -0.2218
-4.0539 মেয়ের -0.2218
-4.0539 মোচন -0.2218
-4.0539 ম্যাম -0.2218
-4.0539 যখন -0.2218
-4.0539 যখনই -0.2218
-4.0539 যতকিছু -0.2218
-4.0539 যতদূর -0.2218
-4.0539 যত্তসব -0.2218
-4.0539 যত্ন -0.2218
-4.0539 যথেষ্ট -0.2218
-4.0539 যদি -0.2218
-4.0539 যদিও -0.2218
-4.0539 যন্ত্র -0.2218
-4.0539 যন্ত্রণা -0.2218
-4.0539 যা -0.2218
-4.0539 যাও -0.2218
-4.0539 যাওয়া -0.2218
-4.0539 যাওয়ার -0.2218
-4.0539 যাক -0.2218
-4.0539 যাকে -0.2218
-4.0539 যাচ্ছি -0.2218
-4.0539 যাচ্ছিল -0.2218
-4.0539 যাচ্ছে -0.2218
-4.0539 যান -0.2218
-4.0539 যাবার -0.2218
-4.0539 যাবে -0.2218
-4.0539 যাবো -0.2218
-4.0539 যার -0.2218
-4.0539 যারা -0.2218
-4.0539 যায় -0.2218
-4.0539 যুক্ত -0.2218
-4.0539 যে -0.2218
-4.0539 যেখান -0.2218
-4.0539 যেখানে -0.2218
-4.0539 যেগুলোকে -0.2218
-4.0539 যেত -0.2218
-4.0539 যেতে -0.2218
-4.0539 যেদিন -0.2218
-4.0539 যেন -0.2218
-4.0539 যেমন: -0.2218
-4.0539 যেমনটা -0.2218
-4.0539 যোনিতে -0.2218
-4.0539 যোনী -0.2218
-4.0539 যোনীতে -0.2218
-4.0539 যোনীপথের -0.2218
-4.0539 র -0.2218
-4.0539 রং -0.2218
-4.0539 রওনা -0.2218
-4.0539 রকম -0.2218
-4.0539 রকমের -0.2218
-4.0539 রক্ত -0.2218
-4.0539 রক্ষা -0.2218
-4.0539 রক্ষাকর্তা -0.2218
-4.0539 রশি -0.2218
-4.0539 রস -0.2218
-4.0539 রাক্ষসের -0.2218
-4.0539 রাখত -0.2218
-4.0539 রাখতাম -0.2218
-4.0539 রাখতে -0.2218
-4.0539 রাখবে -0.2218
-4.0539 রাখবো -0.2218
-4.0539 রাখাল -0.2218
-4.0539 রাখুন -0.2218
-4.0539 রাগ -0.2218
-4.0539 রাগের -0.2218
-4.0539 রাঙ্গা -0.2218
-4.0539 রাজি -0.2218
-4.0539 রাণী -0.2218
-4.0539 রাত -0.2218
-4.0539 রাতটা -0.2218
-4.0539 রাতে -0.2218
-4.0539 রাতের -0.2218
-4.0539 রানী -0.2218
-4.0539 রান্না -0.2218
-4.0539 রাশিয়ান -0.2218
-4.0539 রিফ্লেক্স -0.2218
-4.0539 রুপার -0.2218
-4.0539 রুমে -0.2218
-4.0539 রে -0.2218
-4.0539 রেখেছো -0.2218
-4.0539 রেগে -0.2218
-4.0539 রেফারেন্স -0.2218
-4.0539 রোগী -0.2218
-4.0539 রোগীকে -0.2218
-4.0539 রোদ -0.2218
-4.0539 রোপণের -0.2218
-4.0539 রয়েছে -0.2218
-4.0539 লক্ষ -0.2218
-4.0539 লজ্জা -0.2218
-4.0539 লজ্জার -0.2218
-4.0539 লম্পট -0.2218
-4.0539 লাইব্রেরি -0.2218
-4.0539 লাইব্রেরিতে -0.2218
-4.0539 লাগছে -0.2218
-4.0539 লাগবে -0.2218
-4.0539 লাগানোর -0.2218
-4.0539 লাগাল -0.2218
-4.0539 লাগিয়ে -0.2218
-4.0539 লাগে -0.2218
-4.0539 লাল -0.2218
-4.0539 লালন-পালন -0.2218
-4.0539 লাশের -0.2218
-4.0539 লিখছি -0.2218
-4.0539 লিখা -0.2218
-4.0539 লুকালো -0.2218
-4.0539 লেখকের -0.2218
-4.0539 লেখা -0.2218
-4.0539 লেডি -0.2218
-4.0539 লেডিকে -0.2218
-4.0539 লেডির -0.2218
-4.0539 লোক -0.2218
-4.0539 লোকজন -0.2218
-4.0539 লোকটা -0.2218
-4.0539 লোকে -0.2218
-4.0539 লোভ -0.2218
-4.0539 লোভে -0.2218
-4.0539 লোম-হীন -0.2218
-4.0539 লোমহীন -0.2218
-4.0539 শক্তি -0.2218
-4.0539 শব্দ -0.2218
-4.0539 শব্দটা -0.2218
-4.0539 শব্দের -0.2218
-4.0539 শরীর -0.2218
-4.0539 শর্ত -0.2218
-4.0539 শান্ত -0.2218
-4.0539 শাব্বাস -0.2218
-4.0539 শালা -0.2218
-4.0539 শালি -0.2218
-4.0539 শাস্তি -0.2218
-4.0539 শিওর -0.2218
-4.0539 শিক্ষার -0.2218
-4.0539 শিখবে -0.2218
-4.0539 শিখলাম -0.2218
-4.0539 শিখি -0.2218
-4.0539 শিখিয়ে -0.2218
-4.0539 শিখিয়েছে -0.2218
-4.0539 শিখেছি -0.2218
-4.0539 শিখেছে -0.2218
-4.0539 শিগ্রই -0.2218
-4.0539 শিশু -0.2218
-4.0539 শিশুই -0.2218
-4.0539 শিশুকাল -0.2218
-4.0539 শিশুদের -0.2218
-4.0539 শিশুরা -0.2218
-4.0539 শীগ্রই -0.2218
-4.0539 শীতল -0.2218
-4.0539 শুধু -0.2218
-4.0539 শুনছে -0.2218
-4.0539 শুনতে -0.2218
-4.0539 শুনতো -0.2218
-4.0539 শুনে -0.2218
-4.0539 শুনেছি -0.2218
-4.0539 শুনেছিলাম -0.2218
-4.0539 শুনো -0.2218
-4.0539 শুভ -0.2218
-4.0539 শুভ্র -0.2218
-4.0539 শুরু -0.2218
-4.0539 শুয়ে -0.2218
-4.0539 শূন্য -0.2218
-4.0539 শেখাও -0.2218
-4.0539 শেখাতে -0.2218
-4.0539 শেখাতেই -0.2218
-4.0539 শেখান -0.2218
-4.0539 শেখানোর -0.2218
-4.0539 শেখাবো -0.2218
-4.0539 শেখালো -0.2218
-4.0539 শেষ -0.2218
-4.0539 শেষে -0.2218
-4.0539 শোন -0.2218
-4.0539 শোনাতে -0.2218
-4.0539 শোনার -0.2218
-4.0539 শোনায় -0.2218
-4.0539 শোভা -0.2218
-4.0539 শ্বাস -0.2218
-4.0539 শ্রদ্ধার -0.2218
-4.0539 শ্রেষ্ঠ -0.2218
-4.0539 শয়তান -0.2218
-4.0539 শয়তানের -0.2218
-4.0539 স -0.2218
-4.0539 সংকটের -0.2218
-4.0539 সংকেত -0.2218
-4.0539 সংরক্ষণ -0.2218
-4.0539 সংস্কৃতির -0.2218
-4.0539 সকল -0.2218
-4.0539 সকলকে -0.2218
-4.0539 সকলে -0.2218
-4.0539 সকলেই -0.2218
-4.0539 সকলের -0.2218
-4.0539 সকাল -0.2218
-4.0539 সঙ্গ -0.2218
-4.0539 সঙ্গম -0.2218
-4.0539 সঙ্গী -0.2218
-4.0539 সঠিক -0.2218
-4.0539 সতর্ক -0.2218
-4.0539 সত্য -0.2218
-4.0539 সত্যি -0.2218
-4.0539 সত্যিই -0.2218
-4.0539 সদর -0.2218
-4.0539 সন্তান -0.2218
-4.0539 সন্দেহের -0.2218
-4.0539 সন্ধ্যাকালে -0.2218
-4.0539 সপ্তাহ -0.2218
-4.0539 সপ্তাহের -0.2218
-4.0539 সব -0.2218
-4.0539 সবই -0.2218
-4.0539 সবকিছু -0.2218
-4.0539 সবকিছুর -0.2218
-4.0539 সবচেয়ে -0.2218
-4.0539 সবটুকু -0.2218
-4.0539 সবসময় -0.2218
-4.0539 সবাই -0.2218
-4.0539 সবার -0.2218
-4.0539 সমস্যা -0.2218
-4.0539 সমস্যাটা -0.2218
-4.0539 সমাপ্ত -0.2218
-4.0539 সমুদ্রে -0.2218
-4.0539 সম্পত্তি -0.2218
-4.0539 সম্পত্তির -0.2218
-4.0539 সম্পদ -0.2218
-4.0539 সম্পদের -0.2218
-4.0539 সম্পর্কে -0.2218
-4.0539 সম্পূর্ণ -0.2218
-4.0539 সম্ভব -0.2218
-4.0539 সম্মোহনী -0.2218
-4.0539 সম্মোহিত -0.2218
-4.0539 সময় -0.2218
-4.0539 সময়টা -0.2218
-4.0539 সরল -0.2218
-4.0539 সরলতা -0.2218
-4.0539 সরানোর -0.2218
-4.0539 সরালো -0.2218
-4.0539 সরায় -0.2218
-4.0539 সরিয়েছিল -0.2218
-4.0539 সরিয়েছিলাম -0.2218
-4.0539 সরুন -0.2218
-4.0539 সর্বদা -0.2218
-4.0539 সর্বশেষ -0.2218
-4.0539 সর্বশ্রেষ্ঠ -0.2218
-4.0539 সর্বেশেষ -0.2218
-4.0539 সর্বোত্তম -0.2218
-4.0539 সস্তা -0.2218
-4.0539 সহকারে -0.2218
-4.0539 সহজ -0.2218
-4.0539 সহজে -0.2218
-4.0539 সহ্য -0.2218
-4.0539 সাক্ষাত -0.2218
-4.0539 সাজলে -0.2218
-4.0539 সাজিয়েছি -0.2218
-4.0539 সাত -0.2218
-4.0539 সাথে -0.2218
-4.0539 সাথেই -0.2218
-4.0539 সান্দ্রতা -0.2218
-4.0539 সাপ -0.2218
-4.0539 সাপটা -0.2218
-4.0539 সাবধান -0.2218
-4.0539 সামনে -0.2218
-4.0539 সারা -0.2218
-4.0539 সারাদিন -0.2218
-4.0539 সাহস -0.2218
-4.0539 সাহসী -0.2218
-4.0539 সাহায্য -0.2218
-4.0539 সিংহ -0.2218
-4.0539 সিগারেট -0.2218
-4.0539 সিগারেটই -0.2218
-4.0539 সিগারেটের -0.2218
-4.0539 সিল্কের -0.2218
-4.0539 সীমার -0.2218
-4.0539 সুগন্ধ -0.2218
-4.0539 সুগন্ধের -0.2218
-4.0539 সুতোয় -0.2218
-4.0539 সুধার -0.2218
-4.0539 সুন্দর -0.2218
-4.0539 সুন্দরি -0.2218
-4.0539 সুন্দরী -0.2218
-4.0539 সুন্দরীগুলা -0.2218
-4.0539 সুস্থ -0.2218
-4.0539 সূর্যের -0.2218
-4.0539 সে -0.2218
-4.0539 সেই -0.2218
-4.0539 সেও -0.2218
-4.0539 সেকি -0.2218
-4.0539 সেখানটায় -0.2218
-4.0539 সেখানে -0.2218
-4.0539 সেগুলো -0.2218
-4.0539 সেগুলোকে -0.2218
-4.0539 সেটা -0.2218
-4.0539 সেটার -0.2218
-4.0539 সেটায় -0.2218
-4.0539 সেদিন -0.2218
-4.0539 সেবায় -0.2218
-4.0539 সেরকম -0.2218
-4.0539 সেরকমই -0.2218
-4.0539 সোজা -0.2218
-4.0539 সোনা -0.2218
-4.0539 সোনার -0.2218
-4.0539 সৌন্দর্য -0.2218
-4.0539 সৌন্দর্যকে -0.2218
-4.0539 স্কিল -0.2218
-4.0539 স্কিলের -0.2218
-4.0539 স্টাইলে -0.2218
-4.0539 স্টুডিওর -0.2218
-4.0539 স্তন -0.2218
-4.0539 স্তনে -0.2218
-4.0539 স্ত্রী -0.2218
-4.0539 স্ত্রীকে -0.2218
-4.0539 স্ত্রীর -0.2218
-4.0539 স্থপতির -0.2218
-4.0539 স্নেহ -0.2218
-4.0539 স্পর্শ -0.2218
-4.0539 স্বচ্ছতা -0.2218
-4.0539 স্বপ্নে -0.2218
-4.0539 স্বরুপ -0.2218
-4.0539 স্বর্ণ -0.2218
-4.0539 স্বর্ণখনির -0.2218
-4.0539 স্বর্ণের -0.2218
-4.0539 স্বাগতম -0.2218
-4.0539 স্বাদ -0.2218
-4.0539 স্বাদটা -0.2218
-4.0539 স্বাধীণতা -0.2218
-4.0539 স্বাধীনতা -0.2218
-4.0539 স্বার্থপর -0.2218
-4.0539 স্যার -0.2218
-4.0539 স্যুটের -0.2218
-4.0539 স্লিম -0.2218
-4.0539 হ -0.2218
-4.0539 হই -0.2218
-4.0539 হওয়ার -0.2218
-4.0539 হচ্ছিলাম -0.2218
-4.0539 হচ্ছে -0.2218
-4.0539 হঠাৎ -0.2218
-4.0539 হত -0.2218
-4.0539 হতবিহব্বল -0.2218
-4.0539 হতে -0.2218
-4.0539 হতো -0.2218
-4.0539 হবার -0.2218
-4.0539 হবে -0.2218
-4.0539 হল -0.2218
-4.0539 হলাম -0.2218
-4.0539 হলে -0.2218
-4.0539 হলেই -0.2218
-4.0539 হলো -0.2218
-4.0539 হাঁটা -0.2218
-4.0539 হাজারবার -0.2218
-4.0539 হাত -0.2218
-4.0539 হাত-পা -0.2218
-4.0539 হাতদুটো -0.2218
-4.0539 হাতে -0.2218
-4.0539 হায় -0.2218
-4.0539 হারাম -0.2218
-4.0539 হারামজাদা -0.2218
-4.0539 হারামজাদাটা -0.2218
-4.0539 হারামজাদাটার -0.2218
-4.0539 হারামিগুলা -0.2218
-4.0539 হাসপাতাল -0.2218
-4.0539 হাসি -0.2218
-4.0539 হাড় -0.2218
-4.0539 হিসেবে -0.2218
-4.0539 হীন -0.2218
-4.0539 হেই -0.2218
-4.0539 হেরিংবোন -0.2218
-4.0539 হেরে -0.2218
-4.0539 হেসেছিল -0.2218
-4.0539 হোক -0.2218
-4.0539 হোটেলে -0.2218
-4.0539 হ্যাঁ -0.2218
-4.0539 হ্যামবার্গের -0.2218
-4.0539 হয় -0.2218
-4.0539 হয়তো -0.2218
-4.0539 হয়ে -0.2218
-4.0539 হয়েও -0.2218
-4.0539 হয়েছি -0.2218
-4.0539 হয়েছিল -0.2218
-4.0539 হয়েছে -0.2218
-4.0539 ০ -0.2218
-4.0539 ১ -0.2218
-4.0539 ১ম -0.2218
-4.0539 ১০ -0.2218
-4.0539 ১০টা -0.2218
-4.0539 ১০০০০ -0.2218
-4.0539 ১৪ -0.2218
-4.0539 ১৫ -0.2218
-4.0539 ১৫টা -0.2218
-4.0539 ২ -0.2218
-4.0539 ২টার -0.2218
-4.0539 ৩ -0.2218
-4.0539 ৩টা -0.2218
-4.0539 ৩বছর -0.2218
-4.0539 ৪ -0.2218
-4.0539 ৪টা -0.2218
-4.0539 ৫ -0.2218
-4.0539 ৫০০০০ -0.2218
-4.0539 ৬ -0.2218
-4.0539 ৭ -0.2218
-4.0539 ৮ -0.2218
-4.0539 ৯ -0.2218

\2-grams:
-3.5768 <s> অংশটুকু 0.0000
-3.5768 <s> অংশীদারের 0.0000
-3.5768 <s> অকেজো 0.0000
-3.5768 <s> অঘ্রানে 0.0000
-3.5768 <s> অঙ্গ 0.0000
-3.5768 <s> অঙ্গে 0.0000
-3.5768 <s> অট্টালিকা 0.0000
-3.5768 <s> অতি 0.0000
-3.5768 <s> অতিক্রম 0.0000
-3.5768 <s> অতিথি 0.0000
-3.5768 <s> অথবা 0.0000
-3.5768 <s> অনুধাবণ 0.0000
-3.5768 <s> অনুপস্থিতি 0.0000
-3.5768 <s> অনুভব 0.0000
-3.5768 <s> অনুমতি 0.0000
-3.5768 <s> অনুশীলনের 0.0000
-3.5768 <s> অনুশোচনা 0.0000
-3.5768 <s> অনেক 0.0000
-3.5768 <s> অনেকদিন 0.0000
-3.5768 <s> অনেকদিনের 0.0000
-3.5768 <s> অন্তঃত 0.0000
-3.5768 <s> অন্তর্বাস 0.0000
-3.5768 <s> অন্ধকার 0.0000
-3.5768 <s> অন্য 0.0000
-3.5768 <s> অন্যকেউ 0.0000
-3.5768 <s> অন্যরকম 0.0000
-3.5768 <s> অপর 0.0000
-3.5768 <s> অপরকে 0.0000
-3.5768 <s> অপেক্ষা 0.0000
-3.5768 <s> অবশেষে 0.0000
-3.5768 <s> অবশ্যই 0.0000
-3.5768 <s> অবস্থায় 0.0000
-3.5768 <s> অবাক 0.0000
-3.5768 <s> অবিশ্বাস্য 0.0000
-3.5768 <s> অভিজ্ঞতা 0.0000
-3.5768 <s> অভিনয় 0.0000
-3.5768 <s> অভিভাবক 0.0000
-3.5768 <s> অভিভূত 0.0000
-3.5768 <s> অভ্যাস 0.0000
-3.5768 <s> অভ্যাসটা 0.0000
-3.5768 <s> অর্ডার 0.0000
-3.5768 <s> অলংকারের 0.0000
-3.5768 <s> অশিক্ষিত 0.0000
-3.5768 <s> অসম্ভব 0.0000
-3.5768 <s> অসহায় 0.0000
-3.5768 <s> অসাধারণ 0.0000
-3.5768 <s> অসুখ 0.0000
-3.5768 <s> আঁচল 0.0000
-3.5768 <s> আঁট-সাঁটে 0.0000
-3.5768 <s> আকার 0.0000
-3.5768 <s> আকাশ 0.0000
-3.5768 <s> আগ 0.0000
-3.5768 <s> আগুন 0.0000
-3.5768 <s> আগুনে 0.0000
-3.5768 <s> আগের 0.0000
-3.5768 <s> আঙিনাতে 0.0000
-3.5768 <s> আঙ্কেল 0.0000
-3.5768 <s> আঙ্কেলকে 0.0000
-3.5768 <s> আঙ্কেলের 0.0000
-3.5768 <s> আচরণ 0.0000
-3.5768 <s> আচ্ছা 0.0000
-3.5768 <s> আছি 0.0000
-3.5768 <s> আছে 0.0000
-3.5768 <s> আছেন 0.0000
-3.5768 <s> আজ 0.0000
-3.5768 <s> আজ-কাল 0.0000
-3.5768 <s> আজকে 0.0000
-3.5768 <s> আজকের 0.0000
-3.5768 <s> আজকেরটা 0.0000
-3.5768 <s> আজব 0.0000
-3.5768 <s> আট 0.0000
-3.5768 <s> আত্মহত্যা 0.0000
-3.5768 <s> আত্মা 0.0000
-3.5768 <s> আনছি 0.0000
-3.5768 <s> আনন্দ 0.0000
-3.5768 <s> আনন্দটা 0.0000
-3.5768 <s> আনন্দিত 0.0000
-3.5768 <s> আনন্দের 0.0000
-3.5768 <s> আনলাম 0.0000
-3.5768 <s> আনো 0.0000
-3.5768 <s> আন্টি 0.0000
-3.5768 <s> আন্টিকে 0.0000
-3.5768 <s> আন্টির 0.0000
-3.5768 <s> আপনাকে 0.0000
-3.5768 <s> আপনাদের 0.0000
-3.5768 <s> আপনার 0.0000
-3.5768 <s> আপনারও 0.0000
-3.5768 <s> আপনারা 0.0000
-3.5768 <s> আপনি 0.0000
-3.5768 <s> আপনিও 0.0000
-3.5768 <s> আফিসারদের 0.0000
-3.5768 <s> আবর্জনায় 0.0000
-3.5768 <s> আবার 0.0000
-3.5768 <s> আবারও 0.0000
-3.5768 <s> আবেগ 0.0000
-3.5768 <s> আবেগের 0.0000
-3.5768 <s> আমন্ত্রণ 0.0000
-3.5768 <s> আমরা 0.0000
-3.5768 <s> আমাকেও 0.0000
-3.5768 <s> আমাদের 0.0000
-3.5768 <s> আমার 0.0000
-3.5768 <s> আমায় 0.0000
-3.5768 <s> আমি 0.0000
-3.5768 <s> আমিই 0.0000
-3.5768 <s> আমিও 0.0000
-3.5768 <s> আমের 0.0000
-3.5768 <s> আর 0.0000
-3.5768 <s> আরও 0.0000
-3.5768 <s> আরম্ভ 0.0000
-3.5768 <s> আরেক 0.0000
-3.5768 <s> আরেকটা 0.0000
-3.5768 <s> আরেকবার 0.0000
-3.5768 <s> আর্ট 0.0000
-3.5768 <s> আলো 0.0000
-3.5768 <s> আশা 0.0000
-3.5768 <s> আশাহীন 0.0000
-3.5768 <s> আশে-পাশে 0.0000
-3.5768 <s> আসক্ত 0.0000
-3.5768 <s> আসছি 0.0000
-3.5768 <s> আসছে 0.0000
-3.5768 <s> আসতে 0.0000
-3.5768 <s> আসতো 0.0000
-3.5768 <s> আসবে 0.0000
-3.5768 <s> আসল 0.0000
-3.5768 <s> আসলে 0.0000
-3.5768 <s> আসলেই 0.0000
-3.5768 <s> আসা 0.0000
-3.5768 <s> আসাই 0.0000
-3.5768 <s> আসার 0.0000
-3.5768 <s> আসি 0.0000
-3.5768 <s> আসে 0.0000
-3.5768 <s> আস্ত 0.0000
-3.5768 <s> আস্তে 0.0000
-3.5768 <s> আাবা*টার 0.0000
-3.5768 <s> আড়ালে 0.0000
-3.5768 <s> ইংরেজ 0.0000
-3.5768 <s> ইংল্যান্ড 0.0000
-3.5768 <s> ইংল্যান্ডের 0.0000
-3.5768 <s> ইচ্ছে 0.0000
-3.5768 <s> ইম্পেরিয়াল 0.0000
-3.5768 <s> ইয়েন 0.0000
-3.5768 <s> উচিত 0.0000
-3.5768 <s> উজ্জ্বল 0.0000
-3.5768 <s> উঠবো 0.0000
-3.5768 <s> উঠানোর 0.0000
-3.5768 <s> উথলে 0.0000
-3.5768 <s> উদ্দাম 0.0000
-3.5768 <s> উদ্দেশ্যে 0.0000
-3.5768 <s> উপগৃহ 0.0000
-3.5768 <s> উপধাবন 0.0000
-3.5768 <s> উপর 0.0000
-3.5768 <s> উপরে 0.0000
-3.5768 <s> উপরের 0.0000
-3.5768 <s> উপলক্ষ্যে 0.0000
-3.5768 <s> উপহার 0.0000
-3.5768 <s> উর্ধ্ধে 0.0000
-3.5768 <s> উলঙ্গ 0.0000
-3.5768 <s> উষ্ণ 0.0000
-3.5768 <s> এ 0.0000
-3.5768 <s> এঁকেছে 0.0000
-3.5768 <s> এঁটেছে 0.0000
-3.5768 <s> এই 0.0000
-3.5768 <s> এইক্ষেত্রে 0.0000
-3.5768 <s> এইতো 0.0000
-3.5768 <s> এইদিকে 0.0000
-3.5768 <s> এক 0.0000
-3.5768 <s> একই 0.0000
-3.5768 <s> একজন 0.0000
-3.5768 <s> একজনে 0.0000
-3.5768 <s> একজোড়া 0.0000
-3.5768 <s> একটা 0.0000
-3.5768 <s> একটানে 0.0000
-3.5768 <s> একটু 0.0000
-3.5768 <s> একটুও 0.0000
-3.5768 <s> একদম 0.0000
-3.5768 <s> একদমই 0.0000
-3.5768 <s> একদিন 0.0000
-3.5768 <s> একপক্ষ 0.0000
-3.5768 <s> একবার 0.0000
-3.5768 <s> একবারও 0.0000
-3.5768 <s> একমাত্র 0.0000
-3.5768 <s> একসাথে 0.0000
-3.5768 <s> একা 0.0000
-3.5768 <s> একাই 0.0000
-3.5768 <s> একে 0.0000
-3.5768 <s> একেবারে 0.0000
-3.5768 <s> এক্ষুনি 0.0000
-3.5768 <s> এখন 0.0000
-3.5768 <s> এখনও 0.0000
-3.5768 <s> এখনকার 0.0000
-3.5768 <s> এখনি 0.0000
-3.5768 <s> এখান 0.0000
-3.5768 <s> এখানকার 0.0000
-3.5768 <s> এখানে 0.0000
-3.5768 <s> এগুলো 0.0000
-3.5768 <s> এজন্য 0.0000
-3.5768 <s> এজন্যই 0.0000
-3.5768 <s> এটা 0.0000
-3.5768 <s> এটাই 0.0000
-3.5768 <s> এটাও 0.0000
-3.5768 <s> এটাকে 0.0000
-3.5768 <s> এটার 0.0000
-3.5768 <s> এটি 0.0000
-3.5768 <s> এত 0.0000
-3.5768 <s> এতই 0.0000
-3.5768 <s> এতকিছু 0.0000
-3.5768 <s> এতক্ষণে 0.0000
-3.5768 <s> এতিম 0.0000
-3.5768 <s> এদের 0.0000
-3.5768 <s> এদেশটা 0.0000
-3.5768 <s> এনে 0.0000
-3.5768 <s> এনেছি 0.0000
-3.5768 <s> এনেছো 0.0000
-3.5768 <s> এন্টিকগুলো 0.0000
-3.5768 <s> এবং 0.0000
-3.5768 <s> এবার 0.0000
-3.5768 <s> এভাবে 0.0000
-3.5768 <s> এমন 0.0000
-3.5768 <s> এমনকি 0.0000
-3.5768 <s> এমনটা 0.0000
-3.5768 <s> এর 0.0000
-3.5768 <s> এরকম 0.0000
-3.5768 <s> এরকমই 0.0000
-3.5768 <s> এরপর 0.0000
-3.5768 <s> এরপরও 0.0000
-3.5768 <s> এলে 0.0000
-3.5768 <s> এলো 0.0000
-3.5768 <s> এসব 0.0000
-3.5768 <s> এসে 0.0000
-3.5768 <s> এসেছি 0.0000
-3.5768 <s> এসেছিল 0.0000
-3.5768 <s> এসেছে 0.0000
-3.5768 <s> এসেছেন 0.0000
-3.5768 <s> এসো 0.0000
-3.5768 <s> ঐ 0.0000
-3.5768 <s> ঐসব 0.0000
-3.5768 <s> ও 0.0000
-3.5768 <s> ওখানে 0.0000
-3.5768 <s> ওখানেই 0.0000
-3.5768 <s> ওগুলো 0.0000
-3.5768 <s> ওগুলোর 0.0000
-3.5768 <s> ওটা 0.0000
-3.5768 <s> ওপার 0.0000
-3.5768 <s> ওপারে 0.0000
-3.5768 <s> ওপাশে 0.0000
-3.5768 <s> ওভাবেই 0.0000
-3.5768 <s> ওর 0.0000
-3.5768 <s> ওরকম 0.0000
-3.5768 <s> ওহ 0.0000
-3.5768 <s> ওয়াইন 0.0000
-3.5768 <s> ওয়াইনের 0.0000
-3.5768 <s> কই 0.0000
-3.5768 <s> কখন 0.0000
-3.5768 <s> কখনই 0.0000
-3.5768 <s> কখনও 0.0000
-3.5768 <s> কচি 0.0000
-3.5768 <s> কঠিন 0.0000
-3.5768 <s> কত 0.0000
-3.5768 <s> কতক 0.0000
-3.5768 <s> কতগুলো 0.0000
-3.5768 <s> কথা 0.0000
-3.5768 <s> কথাই 0.0000
-3.5768 <s> কথাটা 0.0000
-3.5768 <s> কথায় 0.0000
-3.5768 <s> কম 0.0000
-3.5768 <s> কম্বল 0.0000
-3.5768 <s> কর 0.0000
-3.5768 <s> করছি 0.0000
-3.5768 <s> করছে 0.0000
-3.5768 <s> করছেই 0.0000
-3.5768 <s> করছেন 0.0000
-3.5768 <s> করছো 0.0000
-3.5768 <s> করত 0.0000
-3.5768 <s> করতে 0.0000
-3.5768 <s> করতো 0.0000
-3.5768 <s> করবে 0.0000
-3.5768 <s> করবেই 0.0000
-3.5768 <s> করবেন 0.0000
-3.5768 <s> করবো 0.0000
-3.5768 <s> করলে 0.0000
-3.5768 <s> করলেও 0.0000
-3.5768 <s> করলো 0.0000
-3.5768 <s> করা 0.0000
-3.5768 <s> করাচ্ছো 0.0000
-3.5768 <s> করাতো 0.0000
-3.5768 <s> করান 0.0000
-3.5768 <s> করার 0.0000
-3.5768 <s> করায় 0.0000
-3.5768 <s> করি 0.0000
-3.5768 <s> করুক 0.0000
-3.5768 <s> করুন 0.0000
-3.5768 <s> করে 0.0000
-3.5768 <s> করেছি 0.0000
-3.5768 <s> করেছিল 0.0000
-3.5768 <s> করেছিলাম 0.0000
-3.5768 <s> করেছিলেন 0.0000
-3.5768 <s> করেছে 0.0000
-3.5768 <s> করেছো 0.0000
-3.5768 <s> করেন 0.0000
-3.5768 <s> করো 0.0000
-3.5768 <s> কর্তব্য 0.0000
-3.5768 <s> কর্তা 0.0000
-3.5768 <s> কর্তার 0.0000
-3.5768 <s> কল্পনা 0.0000
-3.5768 <s> কষ্ট 0.0000
-3.5768 <s> কষ্টকর 0.0000
-3.5768 <s> কস্ট 0.0000
-3.5768 <s> কাঁচির 0.0000
-3.5768 <s> কাঁটতে 0.0000
-3.5768 <s> কাঁপছে 0.0000
-3.5768 <s> কাঁপে 0.0000
-3.5768 <s> কাউকে 0.0000
-3.5768 <s> কাউকেই 0.0000
-3.5768 <s> কাউন্ট 0.0000
-3.5768 <s> কাউন্টকে 0.0000
-3.5768 <s> কাউন্টের 0.0000
-3.5768 <s> কাউন্ট্রেস 0.0000
-3.5768 <s> কাকে 0.0000
-3.5768 <s> কাগজপত্র 0.0000
-3.5768 <s> কাছ 0.0000
-3.5768 <s> কাছে 0.0000
-3.5768 <s> কাজ 0.0000
-3.5768 <s> কাজের 0.0000
-3.5768 <s> কাটছে 0.0000
-3.5768 <s> কাটিলে 0.0000
-3.5768 <s> কাটিয়েছি 0.0000
-3.5768 <s> কাটে 0.0000
-3.5768 <s> কাটোঁ 0.0000
-3.5768 <s> কান 0.0000
-3.5768 <s> কানা-কানি 0.0000
-3.5768 <s> কানে 0.0000
-3.5768 <s> কানের 0.0000
-3.5768 <s> কান্ড 0.0000
-3.5768 <s> কান্না 0.0000
-3.5768 <s> কাপড় 0.0000
-3.5768 <s> কাপড়ও 0.0000
-3.5768 <s> কামণা 0.0000
-3.5768 <s> কামনা 0.0000
-3.5768 <s> কামনাময়ী 0.0000
-3.5768 <s> কামার্ত 0.0000
-3.5768 <s> কামাড়াচ্ছে 0.0000
-3.5768 <s> কামড় 0.0000
-3.5768 <s> কারও 0.0000
-3.5768 <s> কারণ 0.0000
-3.5768 <s> কারন 0.0000
-3.5768 <s> কারনে 0.0000
-3.5768 <s> কাল 0.0000
-3.5768 <s> কালেক্টর 0.0000
-3.5768 <s> কালেক্টরদের 0.0000
-3.5768 <s> কাহিল 0.0000
-3.5768 <s> কি 0.0000
-3.5768 <s> কিউট 0.0000
-3.5768 <s> কিছু 0.0000
-3.5768 <s> কিছুই 0.0000
-3.5768 <s> কিছুক্ষন 0.0000
-3.5768 <s> কিছুটা 0.0000
-3.5768 <s> কিছুদিনের 0.0000
-3.5768 <s> কিছুর 0.0000
-3.5768 <s> কিনতাম 0.0000
-3.5768 <s> কিনব 0.0000
-3.5768 <s> কিনে 0.0000
-3.5768 <s> কিন্তু 0.0000
-3.5768 <s> কিভাবে 0.0000
-3.5768 <s> কিসের 0.0000
-3.5768 <s> কী 0.0000
-3.5768 <s> কুঁচকিয়ে 0.0000
-3.5768 <s> কুকুরের 0.0000
-3.5768 <s> কুৎসিত 0.0000
-3.5768 <s> কূলে 0.0000
-3.5768 <s> কৃতজ্ঞ 0.0000
-3.5768 <s> কে 0.0000
-3.5768 <s> কেঁদে 0.0000
-3.5768 <s> কেঁদেছিল 0.0000
-3.5768 <s> কেউ 0.0000
-3.5768 <s> কেউবা 0.0000
-3.5768 <s> কেন 0.0000
-3.5768 <s> কেনা 0.0000
-3.5768 <s> কেনার 0.0000
-3.5768 <s> কেনো 0.0000
-3.5768 <s> কেন্দ্রটা 0.0000
-3.5768 <s> কেবল 0.0000
-3.5768 <s> কেমন 0.0000
-3.5768 <s> কোথাও 0.0000
-3.5768 <s> কোথায় 0.0000
-3.5768 <s> কোন 0.0000
-3.5768 <s> কোনটি 0.0000
-3.5768 <s> কোমল 0.0000
-3.5768 <s> কোমড় 0.0000
-3.5768 <s> কোরিয়া 0.0000
-3.5768 <s> কোরিয়ান 0.0000
-3.5768 <s> কোরিয়ানে 0.0000
-3.5768 <s> কোলে 0.0000
-3.5768 <s> কোয়ার্টার 0.0000
-3.5768 <s> কোয়ার্টারে 0.0000
-3.5768 <s> ক্লাশের 0.0000
-3.5768 <s> ক্ষতগুলো 0.0000
-3.5768 <s> ক্ষতি 0.0000
-3.5768 <s> ক্ষমতা 0.0000
-3.5768 <s> ক্ষমা 0.0000
-3.5768 <s> ক্ষুধার্ত 0.0000
-3.5768 <s> ক্ষেতে 0.0000
-3.5768 <s> ক্ষয় 0.0000
-3.5768 <s> কয়েকজন 0.0000
-3.5768 <s> কয়েকটা 0.0000
-3.5768 <s> কয়েন 0.0000
-3.5768 <s> খনির 0.0000
-3.5768 <s> খবর 0.0000
-3.5768 <s> খরচ 0.0000
-3.5768 <s> খাঁমচে 0.0000
-3.5768 <s> খাই 0.0000
-3.5768 <s> খাইয়েছে 0.0000
-3.5768 <s> খাওয়া 0.0000
-3.5768 <s> খাওয়াতাম 0.0000
-3.5768 <s> খাওয়ায় 0.0000
-3.5768 <s> খাটুনি 0.0000
-3.5768 <s> খাবার 0.0000
-3.5768 <s> খাবে 0.0000
-3.5768 <s> খারাপ 0.0000
-3.5768 <s> খালি 0.0000
-3.5768 <s> খুঁইয়ে 0.0000
-3.5768 <s> খুঁজছে 0.0000
-3.5768 <s> খুঁজে 0.0000
-3.5768 <s> খুঁত 0.0000
-3.5768 <s> খুব 0.0000
-3.5768 <s> খুবই 0.0000
-3.5768 <s> খুলবো 0.0000
-3.5768 <s> খুললো 0.0000
-3.5768 <s> খুলে 0.0000
-3.5768 <s> খুলেছিল 0.0000
-3.5768 <s> খুশি 0.0000
-3.5768 <s> খেতাবটি 0.0000
-3.5768 <s> খেতে 0.0000
-3.5768 <s> খেয়াঘাটে 0.0000
-3.5768 <s> খেলবো 0.0000
-3.5768 <s> খেলাঘরে 0.0000
-3.5768 <s> খেলাটা 0.0000
-3.5768 <s> খেলাধুলা 0.0000
-3.5768 <s> খেলে 0.0000
-3.5768 <s> খেয়ে 0.0000
-3.5768 <s> খেয়েছিল 0.0000
-3.5768 <s> খোদা 0.0000
-3.5768 <s> গজব 0.0000
-3.5768 <s> গন্তব্য 0.0000
-3.5768 <s> গন্ধ 0.0000
-3.5768 <s> গন্ধটা 0.0000
-3.5768 <s> গভীর 0.0000
-3.5768 <s> গরিবের 0.0000
-3.5768 <s> গরীব 0.0000
-3.5768 <s> গর্ত 0.0000
-3.5768 <s> গলার 0.0000
-3.5768 <s> গলায় 0.0000
-3.5768 <s> গলে 0.0000
-3.5768 <s> গল্প 0.0000
-3.5768 <s> গল্পটা 0.0000
-3.5768 <s> গহনা 0.0000
-3.5768 <s> গহনাগুলো 0.0000
-3.5768 <s> গাছটা 0.0000
-3.5768 <s> গাছটাকে 0.0000
-3.5768 <s> গাছে 0.0000
-3.5768 <s> গালা-গালি 0.0000
-3.5768 <s> গিয়ে 0.0000
-3.5768 <s> গিয়েছি 0.0000
-3.5768 <s> গিয়েছিলেন 0.0000
-3.5768 <s> গিয়েছে 0.0000
-3.5768 <s> গিয়েছো 0.0000
-3.5768 <s> গেলাম 0.0000
-3.5768 <s> গেলে 0.0000
-3.5768 <s> গো 0.0000
-3.5768 <s> গোছাতে 0.0000
-3.5768 <s> গোপন 0.0000
-3.5768 <s> গোলাপি 0.0000
-3.5768 <s> গোসল 0.0000
-3.5768 <s> গোসলের 0.0000
-3.5768 <s> গ্যাসীয় 0.0000
-3.5768 <s> গ্রাস 0.0000
-3.5768 <s> গড়গড় 0.0000
-3.5768 <s> ঘন্টা 0.0000
-3.5768 <s> ঘরে 0.0000
-3.5768 <s> ঘরের 0.0000
-3.5768 <s> ঘুম 0.0000
-3.5768 <s> ঘুমান 0.0000
-3.5768 <s> ঘুমাবে 0.0000
-3.5768 <s> ঘুমাবো 0.0000
-3.5768 <s> ঘুমিয়ে 0.0000
-3.5768 <s> ঘুমোচ্ছে 0.0000
-3.5768 <s> ঘুমোবে 0.0000
-3.5768 <s> ঘুরবে 0.0000
-3.5768 <s> ঘুরে 0.0000
-3.5768 <s> ঘৃণা 0.0000
-3.5768 <s> ঘোড়াকে 0.0000
-3.5768 <s> ঘ্রাণে 0.0000
-3.5768 <s> চ 0.0000
-3.5768 <s> চকলেট 0.0000
-3.5768 <s> চকলেটের 0.0000
-3.5768 <s> চপস্টিকের 0.0000
-3.5768 <s> চমৎকার 0.0000
-3.5768 <s> চরণতলে 0.0000
-3.5768 <s> চরণেতে 0.0000
-3.5768 <s> চর্চা 0.0000
-3.5768 <s> চলছিল 0.0000
-3.5768 <s> চলে 0.0000
-3.5768 <s> চলো 0.0000
-3.5768 <s> চা 0.0000
-3.5768 <s> চাই 0.0000
-3.5768 <s> চাইছি 0.0000
-3.5768 <s> চাইতাম 0.0000
-3.5768 <s> চাইতো 0.0000
-3.5768 <s> চাইনা 0.0000
-3.5768 <s> চাইবে 0.0000
-3.5768 <s> চাইল 0.0000
-3.5768 <s> চাইলে 0.0000
-3.5768 <s> চাও 0.0000
-3.5768 <s> চাকরদের 0.0000
-3.5768 <s> চাকররা 0.0000
-3.5768 <s> চাকরানী 0.0000
-3.5768 <s> চাকরানীও 0.0000
-3.5768 <s> চাকরানীটা 0.0000
-3.5768 <s> চাকরানীদের 0.0000
-3.5768 <s> চাকরানীর 0.0000
-3.5768 <s> চাচ্ছো 0.0000
-3.5768 <s> চান 0.0000
-3.5768 <s> চাপ 0.0000
-3.5768 <s> চামচ 0.0000
-3.5768 <s> চামচের 0.0000
-3.5768 <s> চামড়ায় 0.0000
-3.5768 <s> চার 0.0000
-3.5768 <s> চাষা-ওঝার 0.0000
-3.5768 <s> চাষার 0.0000
-3.5768 <s> চাষি 0.0000
-3.5768 <s> চায় 0.0000
-3.5768 <s> চিকিৎসা 0.0000
-3.5768 <s> চিঠি 0.0000
-3.5768 <s> চিঠিটা 0.0000
-3.5768 <s> চিত্তবিনোদন 0.0000
-3.5768 <s> চিত্রকর্মে 0.0000
-3.5768 <s> চিনছেন 0.0000
-3.5768 <s> চিনলো 0.0000
-3.5768 <s> চিন্তা 0.0000
-3.5768 <s> চিন্তাশীল 0.0000
-3.5768 <s> চিরতরে 0.0000
-3.5768 <s> চিরদিন 0.0000
-3.5768 <s> চিহ্ন 0.0000
-3.5768 <s> চুক্তি 0.0000
-3.5768 <s> চুনি 0.0000
-3.5768 <s> চুনিও 0.0000
-3.5768 <s> চুমু 0.0000
-3.5768 <s> চুরি 0.0000
-3.5768 <s> চুরির 0.0000
-3.5768 <s> চুলের 0.0000
-3.5768 <s> চেরী 0.0000
-3.5768 <s> চেষ্টা 0.0000
-3.5768 <s> চেহারা 0.0000
-3.5768 <s> চেহারার 0.0000
-3.5768 <s> চেয়ারে 0.0000
-3.5768 <s> চেয়ে 0.0000
-3.5768 <s> চেয়েছিলাম 0.0000
-3.5768 <s> চেয়েছিলে 0.0000
-3.5768 <s> চেয়েছিলেন 0.0000
-3.5768 <s> চোখ 0.0000
-3.5768 <s> চোখদুটো 0.0000
-3.5768 <s> চোখে 0.0000
-3.5768 <s> চোর 0.0000
-3.5768 <s> চোরের 0.0000
-3.5768 <s> চড়াই-উৎরাই 0.0000
-3.5768 <s> ছবি 0.0000
-3.5768 <s> ছাই 0.0000
-3.5768 <s> ছায়া 0.0000
-3.5768 <s> ছায়ায়-ঢাকা 0.0000
-3.5768 <s> ছাড় 0.0000
-3.5768 <s> ছাড়তে 0.0000
-3.5768 <s> ছাড়বো 0.0000
-3.5768 <s> ছাড়িয়ে 0.0000
-3.5768 <s> ছিঁড়বো 0.0000
-3.5768 <s> ছিটিয়েছিল 0.0000
-3.5768 <s> ছিদ্র 0.0000
-3.5768 <s> ছিল 0.0000
-3.5768 <s> ছিলাম 0.0000
-3.5768 <s> ছিলো 0.0000
-3.5768 <s> ছুঁলেই 0.0000
-3.5768 <s> ছুটে 0.0000
-3.5768 <s> ছেলে 0.0000
-3.5768 <s> ছেলের 0.0000
-3.5768 <s> ছেড়ে 0.0000
-3.5768 <s> ছোট 0.0000
-3.5768 <s> ছোট্ট 0.0000
-3.5768 <s> ছড়াও 0.0000
-3.5768 <s> ছয় 0.0000
-3.5768 <s> জগৎ 0.0000
-3.5768 <s> জন্ম 0.0000
-3.5768 <s> জন্মালেই 0.0000
-3.5768 <s> জন্মেছি 0.0000
-3.5768 <s> জন্মের 0.0000
-3.5768 <s> জন্য 0.0000
-3.5768 <s> জন্যও 0.0000
-3.5768 <s> জন্যে 0.0000
-3.5768 <s> জমাতে 0.0000
-3.5768 <s> জরুরী 0.0000
-3.5768 <s> জল 0.0000
-3.5768 <s> জাঁহাপনা 0.0000
-3.5768 <s> জান 0.0000
-3.5768 <s> জানতে 0.0000
-3.5768 <s> জানবো 0.0000
-3.5768 <s> জানা 0.0000
-3.5768 <s> জানাচ্ছি 0.0000
-3.5768 <s> জানার 0.0000
-3.5768 <s> জানালা 0.0000
-3.5768 <s> জানায় 0.0000
-3.5768 <s> জানি 0.0000
-3.5768 <s> জানে 0.0000
-3.5768 <s> জানেন 0.0000
-3.5768 <s> জানো 0.0000
-3.5768 <s> জাপান 0.0000
-3.5768 <s> জাপানি 0.0000
-3.5768 <s> জাপানিও 0.0000
-3.5768 <s> জাপানিকে 0.0000
-3.5768 <s> জাপানিটাকে 0.0000
-3.5768 <s> জাপানিটার 0.0000
-3.5768 <s> জাপানির 0.0000
-3.5768 <s> জাপানে 0.0000
-3.5768 <s> জাপানেও 0.0000
-3.5768 <s> জাপানের 0.0000
-3.5768 <s> জারজটা 0.0000
-3.5768 <s> জারজটাকে 0.0000
-3.5768 <s> জার্নির 0.0000
-3.5768 <s> জার্মানরা 0.0000
-3.5768 <s> জাল 0.0000
-3.5768 <s> জাহাপঁনা 0.0000
-3.5768 <s> জায়গা 0.0000
-3.5768 <s> জায়গাটা 0.0000
-3.5768 <s> জায়গার 0.0000
-3.5768 <s> জায়গায় 0.0000
-3.5768 <s> জিগ্যেস 0.0000
-3.5768 <s> জিনিস 0.0000
-3.5768 <s> জিনিসগুলো 0.0000
-3.5768 <s> জিনিসপত্র 0.0000
-3.5768 <s> জিহ্বা 0.0000
-3.5768 <s> জীবন 0.0000
-3.5768 <s> জীবন-যাপনZ 0.0000
-3.5768 <s> জীবনটা 0.0000
-3.5768 <s> জীবনে 0.0000
-3.5768 <s> জীবনের 0.0000
-3.5768 <s> জীবন্ত 0.0000
-3.5768 <s> জুতা 0.0000
-3.5768 <s> জুতাগুলো 0.0000
-3.5768 <s> জুতো 0.0000
-3.5768 <s> জুয়ায় 0.0000
-3.5768 <s> জেনে 0.0000
-3.5768 <s> জোর 0.0000
-3.5768 <s> জোরে 0.0000
-3.5768 <s> জোড়া 0.0000
-3.5768 <s> জ্ঞানের 0.0000
-3.5768 <s> জ্বালিস 0.0000
-3.5768 <s> জ্বি 0.0000
-3.5768 <s> জড়িয়ে 0.0000
-3.5768 <s> ঝন 0.0000
-3.5768 <s> ঝরনার 0.0000
-3.5768 <s> ঝুলাতো 0.0000
-3.5768 <s> ঝুলে 0.0000
-3.5768 <s> ঝেড়ে 0.0000
-3.5768 <s> টক 0.0000
-3.5768 <s> টসটসে 0.0000
-3.5768 <s> টা 0.0000
-3.5768 <s> টাকা 0.0000
-3.5768 <s> টাকাই 0.0000
-3.5768 <s> টাকায় 0.0000
-3.5768 <s> টান 0.0000
-3.5768 <s> টানটান 0.0000
-3.5768 <s> টানতে 0.0000
-3.5768 <s> টিকতো 0.0000
-3.5768 <s> টেস্টের 0.0000
-3.5768 <s> ট্রেন 0.0000
-3.5768 <s> ট্রেনিং 0.0000
-3.5768 <s> ট্রেনিংটা 0.0000
-3.5768 <s> ট্রেনিংয়ের 0.0000
-3.5768 <s> ট্রেনে 0.0000
-3.5768 <s> ঠান্ডা 0.0000
-3.5768 <s> ঠিক 0.0000
-3.5768 <s> ঠিকভাবে 0.0000
-3.5768 <s> ঠিকমত 0.0000
-3.5768 <s> ঠেকিও 0.0000
-3.5768 <s> ঠোঁট 0.0000
-3.5768 <s> ডাকা 0.0000
-3.5768 <s> ডালে 0.0000
-3.5768 <s> ডিউক 0.0000
-3.5768 <s> ডেকে 0.0000
-3.5768 <s> ডেকেছেন 0.0000
-3.5768 <s> ঢাকের 0.0000
-3.5768 <s> ঢুকাও 0.0000
-3.5768 <s> ঢুকাবো 0.0000
-3.5768 <s> ঢুকালাম 0.0000
-3.5768 <s> ঢেকে 0.0000
-3.5768 <s> ঢোকাও 0.0000
-3.5768 <s> তখন 0.0000
-3.5768 <s> তছনছ 0.0000
-3.5768 <s> তবুও 0.0000
-3.5768 <s> তবে 0.0000
-3.5768 <s> তর্ক 0.0000
-3.5768 <s> তল 0.0000
-3.5768 <s> তা 0.0000
-3.5768 <s> তাই 0.0000
-3.5768 <s> তাইনা 0.0000
-3.5768 <s> তাকাই 0.0000
-3.5768 <s> তাকাতাম 0.0000
-3.5768 <s> তাকাতো 0.0000
-3.5768 <s> তাকায় 0.0000
-3.5768 <s> তাকিয়ে 0.0000
-3.5768 <s> তাকে 0.0000
-3.5768 <s> তাকের 0.0000
-3.5768 <s> তাতে 0.0000
-3.5768 <s> তাদের 0.0000
-3.5768 <s> তাদেরও 0.0000
-3.5768 <s> তার 0.0000
-3.5768 <s> তারপর 0.0000
-3.5768 <s> তারপরও 0.0000
-3.5768 <s> তারা 0.0000
-3.5768 <s> তাহলে 0.0000
-3.5768 <s> তাড়াতাড়ি 0.0000
-3.5768 <s> তিক্ততা 0.0000
-3.5768 <s> তিন 0.0000
-3.5768 <s> তুই 0.0000
-3.5768 <s> তুমি 0.0000
-3.5768 <s> তুমিও 0.0000
-3.5768 <s> তুলবে 0.0000
-3.5768 <s> তুললো 0.0000
-3.5768 <s> তুলে 0.0000
-3.5768 <s> তুষারের 0.0000
-3.5768 <s> তে 0.0000
-3.5768 <s> তেমনটা 0.0000
-3.5768 <s> তেমনটাই 0.0000
-3.5768 <s> তেল 0.0000
-3.5768 <s> তৈরি 0.0000
-3.5768 <s> তৈরির 0.0000
-3.5768 <s> তো 0.0000
-3.5768 <s> তোতলিয়ে 0.0000
-3.5768 <s> তোমাকেই 0.0000
-3.5768 <s> তোমাদের 0.0000
-3.5768 <s> তোমায় 0.0000
-3.5768 <s> তোমার 0.0000
-3.5768 <s> তোমারটায় 0.0000
-3.5768 <s> তোমারি 0.0000
-3.5768 <s> তোমায় 0.0000
-3.5768 <s> তোমায়ও 0.0000
-3.5768 <s> তোর 0.0000
-3.5768 <s> তোলে 0.0000
-3.5768 <s> ত্যাগ 0.0000
-3.5768 <s> থাকত 0.0000
-3.5768 <s> থাকতে 0.0000
-3.5768 <s> থাকবে 0.0000
-3.5768 <s> থাকলে 0.0000
-3.5768 <s> থাকি 0.0000
-3.5768 <s> থাকুন 0.0000
-3.5768 <s> থাকে 0.0000
-3.5768 <s> থাকেন 0.0000
-3.5768 <s> থাকো 0.0000
-3.5768 <s> থামবে 0.0000
-3.5768 <s> থামলে 0.0000
-3.5768 <s> থামা 0.0000
-3.5768 <s> থামুন 0.0000
-3.5768 <s> থুথু 0.0000
-3.5768 <s> থুরথুরে 0.0000
-3.5768 <s> থেকে 0.0000
-3.5768 <s> থেকেই 0.0000
-3.5768 <s> থেকেও 0.0000
-3.5768 <s> থেকেছি 0.0000
-3.5768 <s> থেমো 0.0000
-3.5768 <s> দখলের 0.0000
-3.5768 <s> দন্ড 0.0000
-3.5768 <s> দম 0.0000
-3.5768 <s> দরকার 0.0000
-3.5768 <s> দরজা 0.0000
-3.5768 <s> দরজার 0.0000
-3.5768 <s> দরজায় 0.0000
-3.5768 <s> দরদ 0.0000
-3.5768 <s> দরদী 0.0000
-3.5768 <s> দল 0.0000
-3.5768 <s> দলে 0.0000
-3.5768 <s> দাঁত 0.0000
-3.5768 <s> দাঁড়াতে 0.0000
-3.5768 <s> দাঁড়ান 0.0000
-3.5768 <s> দাও 0.0000
-3.5768 <s> দানে 0.0000
-3.5768 <s> দাম 0.0000
-3.5768 <s> দামি 0.0000
-3.5768 <s> দারোয়ান 0.0000
-3.5768 <s> দালাল 0.0000
-3.5768 <s> দায়িত্ব 0.0000
-3.5768 <s> দিও 0.0000
-3.5768 <s> দিকে 0.0000
-3.5768 <s> দিকের 0.0000
-3.5768 <s> দিচ্ছি 0.0000
-3.5768 <s> দিচ্ছে 0.0000
-3.5768 <s> দিত 0.0000
-3.5768 <s> দিতাম 0.0000
-3.5768 <s> দিতে 0.0000
-3.5768 <s> দিন 0.0000
-3.5768 <s> দিব 0.0000
-3.5768 <s> দিল 0.0000
-3.5768 <s> দিলাম 0.0000
-3.5768 <s> দিলে 0.0000
-3.5768 <s> দিলেও 0.0000
-3.5768 <s> দিলেম 0.0000
-3.5768 <s> দিলো 0.0000
-3.5768 <s> দিয়ে 0.0000
-3.5768 <s> দিয়েছিল 0.0000
-3.5768 <s> দিয়েছে 0.0000
-3.5768 <s> দীপ 0.0000
-3.5768 <s> দুঃখিত 0.0000
-3.5768 <s> দুঃস্বপ্ন 0.0000
-3.5768 <s> দুই 0.0000
-3.5768 <s> দুজনকে 0.0000
-3.5768 <s> দুটো 0.0000
-3.5768 <s> দুধ 0.0000
-3.5768 <s> দুধর্ষ 0.0000
-3.5768 <s> দুনিয়ার 0.0000
-3.5768 <s> দুনিয়ায় 0.0000
-3.5768 <s> দুপুরে 0.0000
-3.5768 <s> দুল 0.0000
-3.5768 <s> দূর 0.0000
-3.5768 <s> দূরে 0.0000
-3.5768 <s> দূর্ভাগ্য 0.0000
-3.5768 <s> দূর্লভ 0.0000
-3.5768 <s> দৃষ্টি 0.0000
-3.5768 <s> দে 0.0000
-3.5768 <s> দেই 0.0000
-3.5768 <s> দেখছি 0.0000
-3.5768 <s> দেখছিলেন 0.0000
-3.5768 <s> দেখছো 0.0000
-3.5768 <s> দেখতে 0.0000
-3.5768 <s> দেখতেই 0.0000
-3.5768 <s> দেখবে 0.0000
-3.5768 <s> দেখলাম 0.0000
-3.5768 <s> দেখলে 0.0000
-3.5768 <s> দেখা 0.0000
-3.5768 <s> দেখাচ্ছে 0.0000
-3.5768 <s> দেখাচ্ছো 0.0000
-3.5768 <s> দেখাতে 0.0000
-3.5768 <s> দেখান 0.0000
-3.5768 <s> দেখাবে 0.0000
-3.5768 <s> দেখি 0.0000
-3.5768 <s> দেখে 0.0000
-3.5768 <s> দেখেও 0.0000
-3.5768 <s> দেখেছি 0.0000
-3.5768 <s> দেখেছিলাম 0.0000
-3.5768 <s> দেখেছো 0.0000
-3.5768 <s> দেখো 0.0000
-3.5768 <s> দেব 0.0000
-3.5768 <s> দেবে 0.0000
-3.5768 <s> দেবেন 0.0000
-3.5768 <s> দেবো 0.0000
-3.5768 <s> দেরির 0.0000
-3.5768 <s> দেরী 0.0000
-3.5768 <s> দেশে 0.0000
-3.5768 <s> দেশের 0.0000
-3.5768 <s> দেহের 0.0000
-3.5768 <s> দেয়া 0.0000
-3.5768 <s> দেয়ার 0.0000
-3.5768 <s> দোকান 0.0000
-3.5768 <s> দোভাষীর 0.0000
-3.5768 <s> দোষ 0.0000
-3.5768 <s> দোষী 0.0000
-3.5768 <s> দ্বিমত 0.0000
-3.5768 <s> দ্রুত 0.0000
-3.5768 <s> দড়ি 0.0000
-3.5768 <s> দয়া 0.0000
-3.5768 <s> দয়ালু 0.0000
-3.5768 <s> ধকলে 0.0000
-3.5768 <s> ধন 0.0000
-3.5768 <s> ধনী 0.0000
-3.5768 <s> ধনীদের 0.0000
-3.5768 <s> ধন্য 0.0000
-3.5768 <s> ধন্যবাদ 0.0000
-3.5768 <s> ধরতে 0.0000
-3.5768 <s> ধরতো 0.0000
-3.5768 <s> ধরনের 0.0000
-3.5768 <s> ধরবে 0.0000
-3.5768 <s> ধরা 0.0000
-3.5768 <s> ধরাতে 0.0000
-3.5768 <s> ধরে 0.0000
-3.5768 <s> ধরেছো 0.0000
-3.5768 <s> ধানে-ভরা 0.0000
-3.5768 <s> ধার 0.0000
-3.5768 <s> ধারাল 0.0000
-3.5768 <s> ধীর 0.0000
-3.5768 <s> ধীরে 0.0000
-3.5768 <s> ধুর 0.0000
-3.5768 <s> ধুলা 0.0000
-3.5768 <s> ধুলামাটি 0.0000
-3.5768 <s> ধুয়ে-মুছে 0.0000
-3.5768 <s> ধুয়েছি 0.0000
-3.5768 <s> ধূর্ত 0.0000
-3.5768 <s> ধৃষ্ট 0.0000
-3.5768 <s> ধৃষ্টতা 0.0000
-3.5768 <s> ধেনু-চরা 0.0000
-3.5768 <s> ধোঁয়া 0.0000
-3.5768 <s> ধ্বংসও 0.0000
-3.5768 <s> নই 0.0000
-3.5768 <s> নক 0.0000
-3.5768 <s> নকল 0.0000
-3.5768 <s> নকলকারী 0.0000
-3.5768 <s> নকলের 0.0000
-3.5768 <s> নখ 0.0000
-3.5768 <s> নজর 0.0000
-3.5768 <s> নত 0.0000
-3.5768 <s> নতুন 0.0000
-3.5768 <s> নদীর 0.0000
-3.5768 <s> নভিরও 0.0000
-3.5768 <s> নম্র 0.0000
-3.5768 <s> নয়নজলে 0.0000
-3.5768 <s> নরম 0.0000
-3.5768 <s> না 0.0000
-3.5768 <s> নাইট 0.0000
-3.5768 <s> নাও 0.0000
-3.5768 <s> নাক 0.0000
-3.5768 <s> নাকি 0.0000
-3.5768 <s> নাছোড়বান্দা 0.0000
-3.5768 <s> নাবিকের 0.0000
-3.5768 <s> নাভি 0.0000
-3.5768 <s> নাম 0.0000
-3.5768 <s> নামবো 0.0000
-3.5768 <s> নামে 0.0000
-3.5768 <s> নামের 0.0000
-3.5768 <s> নাম্বার 0.0000
-3.5768 <s> নাহলে 0.0000
-3.5768 <s> নি 0.0000
-3.5768 <s> নিঃসন্তান 0.0000
-3.5768 <s> নিকট 0.0000
-3.5768 <s> নিগুড় 0.0000
-3.5768 <s> নিচতলা 0.0000
-3.5768 <s> নিচতলার 0.0000
-3.5768 <s> নিচতলায় 0.0000
-3.5768 <s> নিচে 0.0000
-3.5768 <s> নিচের 0.0000
-3.5768 <s> নিচ্ছে 0.0000
-3.5768 <s> নিচ্ছো 0.0000
-3.5768 <s> নিজ 0.0000
-3.5768 <s> নিজে 0.0000
-3.5768 <s> নিজেও 0.0000
-3.5768 <s> নিজেকে 0.0000
-3.5768 <s> নিজের 0.0000
-3.5768 <s> নিন 0.0000
-3.5768 <s> নিপল 0.0000
-3.5768 <s> নির্জীব 0.0000
-3.5768 <s> নিল 0.0000
-3.5768 <s> নিলামে 0.0000
-3.5768 <s> নিলামের 0.0000
-3.5768 <s> নিশ্চুপ 0.0000
-3.5768 <s> নিষিদ্ধ 0.0000
-3.5768 <s> নিষেধ 0.0000
-3.5768 <s> নিষ্ঠুর 0.0000
-3.5768 <s> নিষ্ঠুরতা 0.0000
-3.5768 <s> নিয়ে 0.0000
-3.5768 <s> নিয়েই 0.0000
-3.5768 <s> নিয়েছিলাম 0.0000
-3.5768 <s> নিয়েছিলেন 0.0000
-3.5768 <s> নিয়োজিত 0.0000
-3.5768 <s> নীরব 0.0000
-3.5768 <s> নীল 0.0000
-3.5768 <s> নীলাকান্তমনি 0.0000
-3.5768 <s> নুনু 0.0000
-3.5768 <s> নেই 0.0000
-3.5768 <s> নেবে 0.0000
-3.5768 <s> নেবো 0.0000
-3.5768 <s> নেয় 0.0000
-3.5768 <s> নেয়া 0.0000
-3.5768 <s> নেয়ার 0.0000
-3.5768 <s> নোংরা 0.0000
-3.5768 <s> নোট 0.0000
-3.5768 <s> নোনতায় 0.0000
-3.5768 <s> নৌকা 0.0000
-3.5768 <s> ন্যায় 0.0000
-3.5768 <s> নড়লে 0.0000
-3.5768 <s> নয় 0.0000
-3.5768 <s> পকেটমার 0.0000
-3.5768 <s> পকেটমারা 0.0000
-3.5768 <s> পক্ষ 0.0000
-3.5768 <s> পছন্দ 0.0000
-3.5768 <s> পছন্দের 0.0000
-3.5768 <s> পটানো 0.0000
-3.5768 <s> পটানোর 0.0000
-3.5768 <s> পটাবে 0.0000
-3.5768 <s> পটিয়ে 0.0000
-3.5768 <s> পটু 0.0000
-3.5768 <s> পথ 0.0000
-3.5768 <s> পথে 0.0000
-3.5768 <s> পদ্মফুলের 0.0000
-3.5768 <s> পর 0.0000
-3.5768 <s> পরস্পর 0.0000
-3.5768 <s> পরিকল্পনা 0.0000
-3.5768 <s> পরিচয়ে 0.0000
-3.5768 <s> পরিণত 0.0000
-3.5768 <s> পরিবারও 0.0000
-3.5768 <s> পরিবারের 0.0000
-3.5768 <s> পরিস্কার 0.0000
-3.5768 <s> পরে 0.0000
-3.5768 <s> পরের 0.0000
-3.5768 <s> পরেরটা 0.0000
-3.5768 <s> পর্যন্তZ 0.0000
-3.5768 <s> পল্লীবাটে 0.0000
-3.5768 <s> পশ্চিমা 0.0000
-3.5768 <s> পা 0.0000
-3.5768 <s> পাঁচ 0.0000
-3.5768 <s> পাইকারি 0.0000
-3.5768 <s> পাকা 0.0000
-3.5768 <s> পাখি-ডাকা 0.0000
-3.5768 <s> পাগল 0.0000
-3.5768 <s> পাগলাগারদে 0.0000
-3.5768 <s> পাচ্ছে 0.0000
-3.5768 <s> পাছা 0.0000
-3.5768 <s> পাছায় 0.0000
-3.5768 <s> পাঠাও 0.0000
-3.5768 <s> পাঠাচ্ছি 0.0000
-3.5768 <s> পাঠাতে 0.0000
-3.5768 <s> পাঠানোর 0.0000
-3.5768 <s> পাঠাব 0.0000
-3.5768 <s> পাঠাবো 0.0000
-3.5768 <s> পাঠিয়ে 0.0000
-3.5768 <s> পাঠিয়েছে 0.0000
-3.5768 <s> পাতলা 0.0000
-3.5768 <s> পাতো 0.0000
-3.5768 <s> পান 0.0000
-3.5768 <s> পাবার 0.0000
-3.5768 <s> পাবে 0.0000
-3.5768 <s> পাবো 0.0000
-3.5768 <s> পায়ের 0.0000
-3.5768 <s> পার 0.0000
-3.5768 <s> পারছেন 0.0000
-3.5768 <s> পারছো 0.0000
-3.5768 <s> পারত 0.0000
-3.5768 <s> পারতাম 0.0000
-3.5768 <s> পারতেন 0.0000
-3.5768 <s> পারদ 0.0000
-3.5768 <s> পারবে 0.0000
-3.5768 <s> পারবো 0.0000
-3.5768 <s> পারলে 0.0000
-3.5768 <s> পারি 0.0000
-3.5768 <s> পারে 0.0000
-3.5768 <s> পারেন 0.0000
-3.5768 <s> পারো 0.0000
-3.5768 <s> পার্থক্য 0.0000
-3.5768 <s> পালক 0.0000
-3.5768 <s> পালন 0.0000
-3.5768 <s> পালাই 0.0000
-3.5768 <s> পালাতে 0.0000
-3.5768 <s> পালানের 0.0000
-3.5768 <s> পালাবো 0.0000
-3.5768 <s> পালিয়ে 0.0000
-3.5768 <s> পাশে 0.0000
-3.5768 <s> পাশের 0.0000
-3.5768 <s> পাসপোর্ট 0.0000
-3.5768 <s> পাহারা 0.0000
-3.5768 <s> পাহাড়টা 0.0000
-3.5768 <s> পাড়ি 0.0000
-3.5768 <s> পায় 0.0000
-3.5768 <s> পায়ে 0.0000
-3.5768 <s> পায়ের 0.0000
-3.5768 <s> পিষে 0.0000
-3.5768 <s> পুজো 0.0000
-3.5768 <s> পুতুল 0.0000
-3.5768 <s> পুতুলটা 0.0000
-3.5768 <s> পুরুষ 0.0000
-3.5768 <s> পুরুষটা 0.0000
-3.5768 <s> পুরো 0.0000
-3.5768 <s> পুরোদস্তুর 0.0000
-3.5768 <s> পুরোনো 0.0000
-3.5768 <s> পুরোপুরি 0.0000
-3.5768 <s> পূর্ণিমার 0.0000
-3.5768 <s> পূর্ণিমায় 0.0000
-3.5768 <s> পূর্ব-পশ্চিমের 0.0000
-3.5768 <s> পূর্বে 0.0000
-3.5768 <s> পেইটিং 0.0000
-3.5768 <s> পেইনটিং 0.0000
-3.5768 <s> পেইনটিংকে 0.0000
-3.5768 <s> পেইন্টিং 0.0000
-3.5768 <s> পেচালো 0.0000
-3.5768 <s> পেছনে 0.0000
-3.5768 <s> পেটাবো 0.0000
-3.5768 <s> পেত 0.0000
-3.5768 <s> পেতাম 0.0000
-3.5768 <s> পেতে 0.0000
-3.5768 <s> পেরে 0.0000
-3.5768 <s> পেরেছি 0.0000
-3.5768 <s> পেলে 0.0000
-3.5768 <s> পেয়েছিল 0.0000
-3.5768 <s> পেয়েছেন 0.0000
-3.5768 <s> পেয়ো 0.0000
-3.5768 <s> পোষণ 0.0000
-3.5768 <s> পোষাক 0.0000
-3.5768 <s> পোষ্য 0.0000
-3.5768 <s> পৌছল 0.0000
-3.5768 <s> পৌছানো 0.0000
-3.5768 <s> পৌছায় 0.0000
-3.5768 <s> পৌছে 0.0000
-3.5768 <s> পৌছেছিলেন 0.0000
-3.5768 <s> প্রকৃতির 0.0000
-3.5768 <s> প্রচলন 0.0000
-3.5768 <s> প্রচুর 0.0000
-3.5768 <s> প্রতারণা 0.0000
-3.5768 <s> প্রতারণার 0.0000
-3.5768 <s> প্রতি 0.0000
-3.5768 <s> প্রতিক্ষা 0.0000
-3.5768 <s> প্রতিদিন 0.0000
-3.5768 <s> প্রত্যাখ্যান 0.0000
-3.5768 <s> প্রত্যাশা 0.0000
-3.5768 <s> প্রত্যেক 0.0000
-3.5768 <s> প্রথমে 0.0000
-3.5768 <s> প্রযোজ্য 0.0000
-3.5768 <s> প্রশংসা 0.0000
-3.5768 <s> প্রস্তাব 0.0000
-3.5768 <s> প্রস্তুত 0.0000
-3.5768 <s> প্রাক্তন 0.0000
-3.5768 <s> প্রাণবন্ত 0.0000
-3.5768 <s> প্রাণে 0.0000
-3.5768 <s> প্রাপ্ত 0.0000
-3.5768 <s> প্রায় 0.0000
-3.5768 <s> প্রায়ই 0.0000
-3.5768 <s> প্রিয় 0.0000
-3.5768 <s> প্রেম 0.0000
-3.5768 <s> প্রেমে 0.0000
-3.5768 <s> প্রেমের 0.0000
-3.5768 <s> প্লিজ 0.0000
-3.5768 <s> পড়ছে 0.0000
-3.5768 <s> পড়তে 0.0000
-3.5768 <s> পড়বে 0.0000
-3.5768 <s> পড়বো 0.0000
-3.5768 <s> পড়লে 0.0000
-3.5768 <s> পড়লেও 0.0000
-3.5768 <s> পড়া 0.0000
-3.5768 <s> পড়া-লেখা 0.0000
-3.5768 <s> পড়াতে 0.0000
-3.5768 <s> পড়ানো 0.0000
-3.5768 <s> পড়ায় 0.0000
-3.5768 <s> পড়ুক 0.0000
-3.5768 <s> পড়ে 0.0000
-3.5768 <s> পড়েছিল 0.0000
-3.5768 <s> পড়েছিলাম 0.0000
-3.5768 <s> পড়েছো 0.0000
-3.5768 <s> পড়ো 0.0000
-3.5768 <s> পয়েন্ট 0.0000
-3.5768 <s> ফন্দি 0.0000
-3.5768 <s> ফল 0.0000
-3.5768 <s> ফলটার 0.0000
-3.5768 <s> ফসকাতো 0.0000
-3.5768 <s> ফাঁশি 0.0000
-3.5768 <s> ফাঁসি 0.0000
-3.5768 <s> ফাগুনে 0.0000
-3.5768 <s> ফিরবে 0.0000
-3.5768 <s> ফিরলে 0.0000
-3.5768 <s> ফিরে 0.0000
-3.5768 <s> ফিসফিস 0.0000
-3.5768 <s> ফুটতো 0.0000
-3.5768 <s> ফুটন্ত 0.0000
-3.5768 <s> ফুরালে 0.0000
-3.5768 <s> ফুল 0.0000
-3.5768 <s> ফেরা 0.0000
-3.5768 <s> ফেরীতে 0.0000
-3.5768 <s> ফেরে 0.0000
-3.5768 <s> ফেলতে 0.0000
-3.5768 <s> ফেলবে 0.0000
-3.5768 <s> ফেলবো 0.0000
-3.5768 <s> ফেললাম 0.0000
-3.5768 <s> ফেলে 0.0000
-3.5768 <s> ফেলেছো 0.0000
-3.5768 <s> ফোঁটা 0.0000
-3.5768 <s> ফোন 0.0000
-3.5768 <s> ফ্যান্টাসি 0.0000
-3.5768 <s> ফ্রান্সে 0.0000
-3.5768 <s> বংশের 0.0000
-3.5768 <s> বই 0.0000
-3.5768 <s> বইগুলো 0.0000
-3.5768 <s> বইপ্রেমী 0.0000
-3.5768 <s> বইপ্রেমীদের 0.0000
-3.5768 <s> বইয়ে 0.0000
-3.5768 <s> বইয়ের 0.0000
-3.5768 <s> বছর 0.0000
-3.5768 <s> বছরে 0.0000
-3.5768 <s> বজায় 0.0000
-3.5768 <s> বজ্জা 0.0000
-3.5768 <s> বজ্জাত 0.0000
-3.5768 <s> বটের 0.0000
-3.5768 <s> বদনখানি 0.0000
-3.5768 <s> বদলে 0.0000
-3.5768 <s> বদলেছে 0.0000
-3.5768 <s> বনবেন 0.0000
-3.5768 <s> বনে 0.0000
-3.5768 <s> বন্ডে 0.0000
-3.5768 <s> বন্দি 0.0000
-3.5768 <s> বন্দীময় 0.0000
-3.5768 <s> বন্ধ 0.0000
-3.5768 <s> বন্ধু 0.0000
-3.5768 <s> বরং 0.0000
-3.5768 <s> বরাবরই 0.0000
-3.5768 <s> বল 0.0000
-3.5768 <s> বলছি 0.0000
-3.5768 <s> বলছে 0.0000
-3.5768 <s> বলত 0.0000
-3.5768 <s> বলতে 0.0000
-3.5768 <s> বলতো 0.0000
-3.5768 <s> বলবে 0.0000
-3.5768 <s> বলবেন 0.0000
-3.5768 <s> বলবো 0.0000
-3.5768 <s> বললে 0.0000
-3.5768 <s> বললো 0.0000
-3.5768 <s> বলা 0.0000
-3.5768 <s> বলি 0.0000
-3.5768 <s> বলুন 0.0000
-3.5768 <s> বলে 0.0000
-3.5768 <s> বলেছি 0.0000
-3.5768 <s> বলেছিল 0.0000
-3.5768 <s> বলেছে 0.0000
-3.5768 <s> বলেছেন 0.0000
-3.5768 <s> বলেন 0.0000
-3.5768 <s> বলো 0.0000
-3.5768 <s> বশ 0.0000
-3.5768 <s> বসবো 0.0000
-3.5768 <s> বসাবো 0.0000
-3.5768 <s> বসিয়েছে 0.0000
-3.5768 <s> বসে 0.0000
-3.5768 <s> বহিঃপ্রকাশ 0.0000
-3.5768 <s> বহিস্কার 0.0000
-3.5768 <s> বহুদূর 0.0000
-3.5768 <s> বা* 0.0000
-3.5768 <s> বাঁচিয়ে 0.0000
-3.5768 <s> বাঁধন 0.0000
-3.5768 <s> বাঁধা 0.0000
-3.5768 <s> বাঁধানো 0.0000
-3.5768 <s> বাঁশি 0.0000
-3.5768 <s> বাংলা 0.0000
-3.5768 <s> বাংলো 0.0000
-3.5768 <s> বাইরে 0.0000
-3.5768 <s> বাগদত্তা 0.0000
-3.5768 <s> বাচ্চা 0.0000
-3.5768 <s> বাচ্চাকে 0.0000
-3.5768 <s> বাচ্চাদের 0.0000
-3.5768 <s> বাচ্চারা 0.0000
-3.5768 <s> বাজায় 0.0000
-3.5768 <s> বাজি 0.0000
-3.5768 <s> বাজে 0.0000
-3.5768 <s> বাণী 0.0000
-3.5768 <s> বাতাস 0.0000
-3.5768 <s> বাতি 0.0000
-3.5768 <s> বানাচ্ছিলাম 0.0000
-3.5768 <s> বানালো 0.0000
-3.5768 <s> বানিয়েছিল 0.0000
-3.5768 <s> বাবা 0.0000
-3.5768 <s> বাবার 0.0000
-3.5768 <s> বাসর 0.0000
-3.5768 <s> বাস্তবে 0.0000
-3.5768 <s> বাহন 0.0000
-3.5768 <s> বাহু 0.0000
-3.5768 <s> বাহুতে 0.0000
-3.5768 <s> বাড়ছে 0.0000
-3.5768 <s> বাড়া 0.0000
-3.5768 <s> বাড়াটা 0.0000
-3.5768 <s> বাড়ি 0.0000
-3.5768 <s> বাড়িই 0.0000
-3.5768 <s> বাড়িওয়ালিকে 0.0000
-3.5768 <s> বাড়িতে 0.0000
-3.5768 <s> বাড়িতেও 0.0000
-3.5768 <s> বাড়ির 0.0000
-3.5768 <s> বিক্রি 0.0000
-3.5768 <s> বিক্রিই 0.0000
-3.5768 <s> বিক্রেতার 0.0000
-3.5768 <s> বিখ্যাত 0.0000
-3.5768 <s> বিছানা 0.0000
-3.5768 <s> বিছানায় 0.0000
-3.5768 <s> বিছায়েছ 0.0000
-3.5768 <s> বিদ্যুত 0.0000
-3.5768 <s> বিদ্যুতের 0.0000
-3.5768 <s> বিদ্যুৎ 0.0000
-3.5768 <s> বিদ্র 0.0000
-3.5768 <s> বিধায় 0.0000
-3.5768 <s> বিনিময়ে 0.0000
-3.5768 <s> বিভিন্ন 0.0000
-3.5768 <s> বিরহের 0.0000
-3.5768 <s> বিরোধীতা 0.0000
-3.5768 <s> বিশেষ 0.0000
-3.5768 <s> বিশ্বাস 0.0000
-3.5768 <s> বিষয়গুলো 0.0000
-3.5768 <s> বিষয়টা 0.0000
-3.5768 <s> বিয়ার 0.0000
-3.5768 <s> বিয়ে 0.0000
-3.5768 <s> বিয়েতে 0.0000
-3.5768 <s> বিয়ের 0.0000
-3.5768 <s> বুঝতে 0.0000
-3.5768 <s> বুঝবে 0.0000
-3.5768 <s> বুঝবো 0.0000
-3.5768 <s> বুঝলাম 0.0000
-3.5768 <s> বুঝে 0.0000
-3.5768 <s> বুঝেছো 0.0000
-3.5768 <s> বুদ্ধি 0.0000
-3.5768 <s> বুড়োকে 0.0000
-3.5768 <s> বৃদ্ধ 0.0000
-3.5768 <s> বৃদ্ধটার 0.0000
-3.5768 <s> বৃষ্টি 0.0000
-3.5768 <s> বৃস্টি 0.0000
-3.5768 <s> বেঁচে 0.0000
-3.5768 <s> বেঈমানি 0.0000
-3.5768 <s> বেচারী 0.0000
-3.5768 <s> বেচারীর 0.0000
-3.5768 <s> বেছে 0.0000
-3.5768 <s> বেতন 0.0000
-3.5768 <s> বের 0.0000
-3.5768 <s> বেরুলো 0.0000
-3.5768 <s> বেল 0.0000
-3.5768 <s> বেলা 0.0000
-3.5768 <s> বেশি 0.0000
-3.5768 <s> বেশ্যালয়ের 0.0000
-3.5768 <s> বেহুঁশ 0.0000
-3.5768 <s> বেড়ায় 0.0000
-3.5768 <s> বেড়েছে 0.0000
-3.5768 <s> বোকা 0.0000
-3.5768 <s> বোকাটে 0.0000
-3.5768 <s> বোঝে 0.0000
-3.5768 <s> বোতামগুলো 0.0000
-3.5768 <s> বোধহয় 0.0000
-3.5768 <s> বোনের 0.0000
-3.5768 <s> ব্যবস্থা 0.0000
-3.5768 <s> ব্যবহার 0.0000
-3.5768 <s> ব্যর্থ 0.0000
-3.5768 <s> ব্যস্ত 0.0000
-3.5768 <s> ব্যাথ্যা 0.0000
-3.5768 <s> ব্যাথ্যার 0.0000
-3.5768 <s> ব্যাবসার 0.0000
-3.5768 <s> ব্যাভিচার 0.0000
-3.5768 <s> ব্রাশ 0.0000
-3.5768 <s> বড় 0.0000
-3.5768 <s> বয়সে 0.0000
-3.5768 <s> ভদ্র 0.0000
-3.5768 <s> ভদ্রঘরের 0.0000
-3.5768 <s> ভদ্রলোক 0.0000
-3.5768 <s> ভদ্রলোকদের 0.0000
-3.5768 <s> ভদ্রলোকের 0.0000
-3.5768 <s> ভবন 0.0000
-3.5768 <s> ভবিষ্যত 0.0000
-3.5768 <s> ভরা 0.0000
-3.5768 <s> ভর্তি 0.0000
-3.5768 <s> ভাঁজের 0.0000
-3.5768 <s> ভাই 0.0000
-3.5768 <s> ভাগ 0.0000
-3.5768 <s> ভাগনিকে 0.0000
-3.5768 <s> ভাগ্নীখোর 0.0000
-3.5768 <s> ভাগ্য 0.0000
-3.5768 <s> ভাগ্যবতী 0.0000
-3.5768 <s> ভাগ্যবান 0.0000
-3.5768 <s> ভাঙ্গা 0.0000
-3.5768 <s> ভাব 0.0000
-3.5768 <s> ভাবছি 0.0000
-3.5768 <s> ভাবছো 0.0000
-3.5768 <s> ভাবতে 0.0000
-3.5768 <s> ভাবতেই 0.0000
-3.5768 <s> ভাববে 0.0000
-3.5768 <s> ভাবি 0.0000
-3.5768 <s> ভাবে 0.0000
-3.5768 <s> ভাবো 0.0000
-3.5768 <s> ভাল 0.0000
-3.5768 <s> ভালবাস 0.0000
-3.5768 <s> ভালবাসবেন 0.0000
-3.5768 <s> ভালবাসি 0.0000
-3.5768 <s> ভালবাসে 0.0000
-3.5768 <s> ভালবাসেন 0.0000
-3.5768 <s> ভালভাবে 0.0000
-3.5768 <s> ভালোবাসি 0.0000
-3.5768 <s> ভাল্লাগে 0.0000
-3.5768 <s> ভাষা 0.0000
-3.5768 <s> ভাসি 0.0000
-3.5768 <s> ভিজে 0.0000
-3.5768 <s> ভিড়েছি 0.0000
-3.5768 <s> ভীত 0.0000
-3.5768 <s> ভুত 0.0000
-3.5768 <s> ভুল 0.0000
-3.5768 <s> ভুলবো 0.0000
-3.5768 <s> ভূষণ 0.0000
-3.5768 <s> ভেঙ্গে 0.0000
-3.5768 <s> ভেজা 0.0000
-3.5768 <s> ভেজাবে 0.0000
-3.5768 <s> ভেতর 0.0000
-3.5768 <s> ভেতরে 0.0000
-3.5768 <s> ভেতরের 0.0000
-3.5768 <s> ভেবছো 0.0000
-3.5768 <s> ভেবে 0.0000
-3.5768 <s> ভেবেছি 0.0000
-3.5768 <s> ভেবেছিলাম 0.0000
-3.5768 <s> ভেবেছো 0.0000
-3.5768 <s> ভেবো 0.0000
-3.5768 <s> ভেস্তে 0.0000
-3.5768 <s> ভোগ 0.0000
-3.5768 <s> ভ্রমণের 0.0000
-3.5768 <s> ভ্রমনের 0.0000
-3.5768 <s> ভয় 0.0000
-3.5768 <s> ভয়ে 0.0000
-3.5768 <s> ভয়ের 0.0000
-3.5768 <s> মজা 0.0000
-3.5768 <s> মজাই 0.0000
-3.5768 <s> মডেলটা 0.0000
-3.5768 <s> মত 0.0000
-3.5768 <s> মতো 0.0000
-3.5768 <s> মদ 0.0000
-3.5768 <s> মধুর 0.0000
-3.5768 <s> মধ্যবিত্ত 0.0000
-3.5768 <s> মধ্যরাতে 0.0000
-3.5768 <s> মধ্যে 0.0000
-3.5768 <s> মধ্যেও 0.0000
-3.5768 <s> মন 0.0000
-3.5768 <s> মনকে 0.0000
-3.5768 <s> মনিবের 0.0000
-3.5768 <s> মনে 0.0000
-3.5768 <s> মনের 0.0000
-3.5768 <s> মরতে 0.0000
-3.5768 <s> মরবেন 0.0000
-3.5768 <s> মরি 0.0000
-3.5768 <s> মরেছিল 0.0000
-3.5768 <s> মরেছে 0.0000
-3.5768 <s> মলিন 0.0000
-3.5768 <s> মসৃণ 0.0000
-3.5768 <s> মহিলা 0.0000
-3.5768 <s> মহিলাটা 0.0000
-3.5768 <s> মহিলাটার 0.0000
-3.5768 <s> মহিলাটি 0.0000
-3.5768 <s> মহিলাদের 0.0000
-3.5768 <s> মহিলার 0.0000
-3.5768 <s> মহিলারা 0.0000
-3.5768 <s> মা 0.0000
-3.5768 <s> মাংস 0.0000
-3.5768 <s> মাকে 0.0000
-3.5768 <s> মাখি 0.0000
-3.5768 <s> মাগি 0.0000
-3.5768 <s> মাগির 0.0000
-3.5768 <s> মাগীদের 0.0000
-3.5768 <s> মাঝ 0.0000
-3.5768 <s> মাঝে 0.0000
-3.5768 <s> মাঠে 0.0000
-3.5768 <s> মাথা 0.0000
-3.5768 <s> মাথার 0.0000
-3.5768 <s> মাথায় 0.0000
-3.5768 <s> মান-ইজ্জত 0.0000
-3.5768 <s> মানা 0.0000
-3.5768 <s> মানি 0.0000
-3.5768 <s> মানিক 0.0000
-3.5768 <s> মানিয়ে 0.0000
-3.5768 <s> মানুষকে 0.0000
-3.5768 <s> মানে 0.0000
-3.5768 <s> মাফ 0.0000
-3.5768 <s> মায়া 0.0000
-3.5768 <s> মার 0.0000
-3.5768 <s> মারা 0.0000
-3.5768 <s> মারাত্বক 0.0000
-3.5768 <s> মালের 0.0000
-3.5768 <s> মাশরুম 0.0000
-3.5768 <s> মাসে 0.0000
-3.5768 <s> মাসের 0.0000
-3.5768 <s> মাস্তান 0.0000
-3.5768 <s> মায়া 0.0000
-3.5768 <s> মায়ের 0.0000
-3.5768 <s> মি 0.0000
-3.5768 <s> মিথ্যা 0.0000
-3.5768 <s> মিথ্যে 0.0000
-3.5768 <s> মিনিট 0.0000
-3.5768 <s> মিনিটে 0.0000
-3.5768 <s> মিনিটের 0.0000
-3.5768 <s> মিল 0.0000
-3.5768 <s> মিলিওন 0.0000
-3.5768 <s> মিলিয়ে 0.0000
-3.5768 <s> মিস 0.0000
-3.5768 <s> মিসেস 0.0000
-3.5768 <s> মিস্ 0.0000
-3.5768 <s> মিস্টি 0.0000
-3.5768 <s> মিস্টিতে 0.0000
-3.5768 <s> মুক্ত 0.0000
-3.5768 <s> মুক্তি 0.0000
-3.5768 <s> মুখ 0.0000
-3.5768 <s> মুখে 0.0000
-3.5768 <s> মুখের 0.0000
-3.5768 <s> মুখোমুখি 0.0000
-3.5768 <s> মুহূর্তে 0.0000
-3.5768 <s> মুহূর্তের 0.0000
-3.5768 <s> মূর্তিস্তম্ভের 0.0000
-3.5768 <s> মূলে 0.0000
-3.5768 <s> মূল্য 0.0000
-3.5768 <s> মূল্যবান 0.0000
-3.5768 <s> মৃত 0.0000
-3.5768 <s> মৃদু 0.0000
-3.5768 <s> মেক-আপ 0.0000
-3.5768 <s> মেটানো 0.0000
-3.5768 <s> মেনে 0.0000
-3.5768 <s> মেরামত 0.0000
-3.5768 <s> মেরেছিলে 0.0000
-3.5768 <s> মেলে 0.0000
-3.5768 <s> মেয়ে 0.0000
-3.5768 <s> মেয়েকে 0.0000
-3.5768 <s> মেয়েটা 0.0000
-3.5768 <s> মেয়েটাকে 0.0000
-3.5768 <s> মেয়েটির 0.0000
-3.5768 <s> মেয়ের 0.0000
-3.5768 <s> মোচন 0.0000
-3.5768 <s> ম্যাম 0.0000
-3.5768 <s> যখন 0.0000
-3.5768 <s> যখনই 0.0000
-3.5768 <s> যতকিছু 0.0000
-3.5768 <s> যতদূর 0.0000
-3.5768 <s> যত্তসব 0.0000
-3.5768 <s> যত্ন 0.0000
-3.5768 <s> যথেষ্ট 0.0000
-3.5768 <s> যদি 0.0000
-3.5768 <s> যদিও 0.0000
-3.5768 <s> যন্ত্র 0.0000
-3.5768 <s> যন্ত্রণা 0.0000
-3.5768 <s> যা 0.0000
-3.5768 <s> যাও 0.0000
-3.5768 <s> যাওয়া 0.0000
-3.5768 <s> যাওয়ার 0.0000
-3.5768 <s> যাক 0.0000
-3.5768 <s> যাকে 0.0000
-3.5768 <s> যাচ্ছি 0.0000
-3.5768 <s> যাচ্ছিল 0.0000
-3.5768 <s> যাচ্ছে 0.0000
-3.5768 <s> যান 0.0000
-3.5768 <s> যাবার 0.0000
-3.5768 <s> যাবে 0.0000
-3.5768 <s> যাবো 0.0000
-3.5768 <s> যার 0.0000
-3.5768 <s> যারা 0.0000
-3.5768 <s> যায় 0.0000
-3.5768 <s> যুক্ত 0.0000
-3.5768 <s> যে 0.0000
-3.5768 <s> যেখান 0.0000
-3.5768 <s> যেখানে 0.0000
-3.5768 <s> যেগুলোকে 0.0000
-3.5768 <s> যেত 0.0000
-3.5768 <s> যেতে 0.0000
-3.5768 <s> যেদিন 0.0000
-3.5768 <s> যেন 0.0000
-3.5768 <s> যেমন: 0.0000
-3.5768 <s> যেমনটা 0.0000
-3.5768 <s> যোনিতে 0.0000
-3.5768 <s> যোনী 0.0000
-3.5768 <s> যোনীতে 0.0000
-3.5768 <s> যোনীপথের 0.0000
-3.5768 <s> র 0.0000
-3.5768 <s> রং 0.0000
-3.5768 <s> রওনা 0.0000
-3.5768 <s> রকম 0.0000
-3.5768 <s> রকমের 0.0000
-3.5768 <s> রক্ত 0.0000
-3.5768 <s> রক্ষা 0.0000
-3.5768 <s> রক্ষাকর্তা 0.0000
-3.5768 <s> রশি 0.0000
-3.5768 <s> রস 0.0000
-3.5768 <s> রাক্ষসের 0.0000
-3.5768 <s> রাখত 0.0000
-3.5768 <s> রাখতাম 0.0000
-3.5768 <s> রাখতে 0.0000
-3.5768 <s> রাখবে 0.0000
-3.5768 <s> রাখবো 0.0000
-3.5768 <s> রাখাল 0.0000
-3.5768 <s> রাখুন 0.0000
-3.5768 <s> রাগ 0.0000
-3.5768 <s> রাগের 0.0000
-3.5768 <s> রাঙ্গা 0.0000
-3.5768 <s> রাজি 0.0000
-3.5768 <s> রাণী 0.0000
-3.5768 <s> রাত 0.0000
-3.5768 <s> রাতটা 0.0000
-3.5768 <s> রাতে 0.0000
-3.5768 <s> রাতের 0.0000
-3.5768 <s> রানী 0.0000
-3.5768 <s> রান্না 0.0000
-3.5768 <s> রাশিয়ান 0.0000
-3.5768 <s> রিফ্লেক্স 0.0000
-3.5768 <s> রুপার 0.0000
-3.5768 <s> রুমে 0.0000
-3.5768 <s> রে 0.0000
-3.5768 <s> রেখেছো 0.0000
-3.5768 <s> রেগে 0.0000
-3.5768 <s> রেফারেন্স 0.0000
-3.5768 <s> রোগী 0.0000
-3.5768 <s> রোগীকে 0.0000
-3.5768 <s> রোদ 0.0000
-3.5768 <s> রোপণের 0.0000
-3.5768 <s> রয়েছে 0.0000
-3.5768 <s> লক্ষ 0.0000
-3.5768 <s> লজ্জা 0.0000
-3.5768 <s> লজ্জার 0.0000
-3.5768 <s> লম্পট 0.0000
-3.5768 <s> লাইব্রেরি 0.0000
-3.5768 <s> লাইব্রেরিতে 0.0000
-3.5768 <s> লাগছে 0.0000
-3.5768 <s> লাগবে 0.0000
-3.5768 <s> লাগানোর 0.0000
-3.5768 <s> লাগাল 0.0000
-3.5768 <s> লাগিয়ে 0.0000
-3.5768 <s> লাগে 0.0000
-3.5768 <s> লাল 0.0000
-3.5768 <s> লালন-পালন 0.0000
-3.5768 <s> লাশের 0.0000
-3.5768 <s> লিখছি 0.0000
-3.5768 <s> লিখা 0.0000
-3.5768 <s> লুকালো 0.0000
-3.5768 <s> লেখকের 0.0000
-3.5768 <s> লেখা 0.0000
-3.5768 <s> লেডি 0.0000
-3.5768 <s> লেডিকে 0.0000
-3.5768 <s> লেডির 0.0000
-3.5768 <s> লোক 0.0000
-3.5768 <s> লোকজন 0.0000
-3.5768 <s> লোকটা 0.0000
-3.5768 <s> লোকে 0.0000
-3.5768 <s> লোভ 0.0000
-3.5768 <s> লোভে 0.0000
-3.5768 <s> লোম-হীন 0.0000
-3.5768 <s> লোমহীন 0.0000
-3.5768 <s> শক্তি 0.0000
-3.5768 <s> শব্দ 0.0000
-3.5768 <s> শব্দটা 0.0000
-3.5768 <s> শব্দের 0.0000
-3.5768 <s> শরীর 0.0000
-3.5768 <s> শর্ত 0.0000
-3.5768 <s> শান্ত 0.0000
-3.5768 <s> শাব্বাস 0.0000
-3.5768 <s> শালা 0.0000
-3.5768 <s> শালি 0.0000
-3.5768 <s> শাস্তি 0.0000
-3.5768 <s> শিওর 0.0000
-3.5768 <s> শিক্ষার 0.0000
-3.5768 <s> শিখবে 0.0000
-3.5768 <s> শিখলাম 0.0000
-3.5768 <s> শিখি 0.0000
-3.5768 <s> শিখিয়ে 0.0000
-3.5768 <s> শিখিয়েছে 0.0000
-3.5768 <s> শিখেছি 0.0000
-3.5768 <s> শিখেছে 0.0000
-3.5768 <s> শিগ্রই 0.0000
-3.5768 <s> শিশু 0.0000
-3.5768 <s> শিশুই 0.0000
-3.5768 <s> শিশুকাল 0.0000
-3.5768 <s> শিশুদের 0.0000
-3.5768 <s> শিশুরা 0.0000
-3.5768 <s> শীগ্রই 0.0000
-3.5768 <s> শীতল 0.0000
-3.5768 <s> শুধু 0.0000
-3.5768 <s> শুনছে 0.0000
-3.5768 <s> শুনতে 0.0000
-3.5768 <s> শুনতো 0.0000
-3.5768 <s> শুনে 0.0000
-3.5768 <s> শুনেছি 0.0000
-3.5768 <s> শুনেছিলাম 0.0000
-3.5768 <s> শুনো 0.0000
-3.5768 <s> শুভ 0.0000
-3.5768 <s> শুভ্র 0.0000
-3.5768 <s> শুরু 0.0000
-3.5768 <s> শুয়ে 0.0000
-3.5768 <s> শূন্য 0.0000
-3.5768 <s> শেখাও 0.0000
-3.5768 <s> শেখাতে 0.0000
-3.5768 <s> শেখাতেই 0.0000
-3.5768 <s> শেখান 0.0000
-3.5768 <s> শেখানোর 0.0000
-3.5768 <s> শেখাবো 0.0000
-3.5768 <s> শেখালো 0.0000
-3.5768 <s> শেষ 0.0000
-3.5768 <s> শেষে 0.0000
-3.5768 <s> শোন 0.0000
-3.5768 <s> শোনাতে 0.0000
-3.5768 <s> শোনার 0.0000
-3.5768 <s> শোনায় 0.0000
-3.5768 <s> শোভা 0.0000
-3.5768 <s> শ্বাস 0.0000
-3.5768 <s> শ্রদ্ধার 0.0000
-3.5768 <s> শ্রেষ্ঠ 0.0000
-3.5768 <s> শয়তান 0.0000
-3.5768 <s> শয়তানের 0.0000
-3.5768 <s> স 0.0000
-3.5768 <s> সংকটের 0.0000
-3.5768 <s> সংকেত 0.0000
-3.5768 <s> সংরক্ষণ 0.0000
-3.5768 <s> সংস্কৃতির 0.0000
-3.5768 <s> সকল 0.0000
-3.5768 <s> সকলকে 0.0000
-3.5768 <s> সকলে 0.0000
-3.5768 <s> সকলেই 0.0000
-3.5768 <s> সকলের 0.0000
-3.5768 <s> সকাল 0.0000
-3.5768 <s> সঙ্গ 0.0000
-3.5768 <s> সঙ্গম 0.0000
-3.5768 <s> সঙ্গী 0.0000
-3.5768 <s> সঠিক 0.0000
-3.5768 <s> সতর্ক 0.0000
-3.5768 <s> সত্য 0.0000
-3.5768 <s> সত্যি 0.0000
-3.5768 <s> সত্যিই 0.0000
-3.5768 <s> সদর 0.0000
-3.5768 <s> সন্তান 0.0000
-3.5768 <s> সন্দেহের 0.0000
-3.5768 <s> সন্ধ্যাকালে 0.0000
-3.5768 <s> সপ্তাহ 0.0000
-3.5768 <s> সপ্তাহের 0.0000
-3.5768 <s> সব 0.0000
-3.5768 <s> সবই 0.0000
-3.5768 <s> সবকিছু 0.0000
-3.5768 <s> সবকিছুর 0.0000
-3.5768 <s> সবচেয়ে 0.0000
-3.5768 <s> সবটুকু 0.0000
-3.5768 <s> সবসময় 0.0000
-3.5768 <s> সবাই 0.0000
-3.5768 <s> সবার 0.0000
-3.5768 <s> সমস্যা 0.0000
-3.5768 <s> সমস্যাটা 0.0000
-3.5768 <s> সমাপ্ত 0.0000
-3.5768 <s> সমুদ্রে 0.0000
-3.5768 <s> সম্পত্তি 0.0000
-3.5768 <s> সম্পত্তির 0.0000
-3.5768 <s> সম্পদ 0.0000
-3.5768 <s> সম্পদের 0.0000
-3.5768 <s> সম্পর্কে 0.0000
-3.5768 <s> সম্পূর্ণ 0.0000
-3.5768 <s> সম্ভব 0.0000
-3.5768 <s> সম্মোহনী 0.0000
-3.5768 <s> সম্মোহিত 0.0000
-3.5768 <s> সময় 0.0000
-3.5768 <s> সময়টা 0.0000
-3.5768 <s> সরল 0.0000
-3.5768 <s> সরলতা 0.0000
-3.5768 <s> সরানোর 0.0000
-3.5768 <s> সরালো 0.0000
-3.5768 <s> সরায় 0.0000
-3.5768 <s> সরিয়েছিল 0.0000
-3.5768 <s> সরিয়েছিলাম 0.0000
-3.5768 <s> সরুন 0.0000
-3.5768 <s> সর্বদা 0.0000
-3.5768 <s> সর্বশেষ 0.0000
-3.5768 <s> সর্বশ্রেষ্ঠ 0.0000
-3.5768 <s> সর্বেশেষ 0.0000
-3.5768 <s> সর্বোত্তম 0.0000
-3.5768 <s> সস্তা 0.0000
-3.5768 <s> সহকারে 0.0000
-3.5768 <s> সহজ 0.0000
-3.5768 <s> সহজে 0.0000
-3.5768 <s> সহ্য 0.0000
-3.5768 <s> সাক্ষাত 0.0000
-3.5768 <s> সাজলে 0.0000
-3.5768 <s> সাজিয়েছি 0.0000
-3.5768 <s> সাত 0.0000
-3.5768 <s> সাথে 0.0000
-3.5768 <s> সাথেই 0.0000
-3.5768 <s> সান্দ্রতা 0.0000
-3.5768 <s> সাপ 0.0000
-3.5768 <s> সাপটা 0.0000
-3.5768 <s> সাবধান 0.0000
-3.5768 <s> সামনে 0.0000
-3.5768 <s> সারা 0.0000
-3.5768 <s> সারাদিন 0.0000
-3.5768 <s> সাহস 0.0000
-3.5768 <s> সাহসী 0.0000
-3.5768 <s> সাহায্য 0.0000
-3.5768 <s> সিংহ 0.0000
-3.5768 <s> সিগারেট 0.0000
-3.5768 <s> সিগারেটই 0.0000
-3.5768 <s> সিগারেটের 0.0000
-3.5768 <s> সিল্কের 0.0000
-3.5768 <s> সীমার 0.0000
-3.5768 <s> সুগন্ধ 0.0000
-3.5768 <s> সুগন্ধের 0.0000
-3.5768 <s> সুতোয় 0.0000
-3.5768 <s> সুধার 0.0000
-3.5768 <s> সুন্দর 0.0000
-3.5768 <s> সুন্দরি 0.0000
-3.5768 <s> সুন্দরী 0.0000
-3.5768 <s> সুন্দরীগুলা 0.0000
-3.5768 <s> সুস্থ 0.0000
-3.5768 <s> সূর্যের 0.0000
-3.5768 <s> সে 0.0000
-3.5768 <s> সেই 0.0000
-3.5768 <s> সেও 0.0000
-3.5768 <s> সেকি 0.0000
-3.5768 <s> সেখানটায় 0.0000
-3.5768 <s> সেখানে 0.0000
-3.5768 <s> সেগুলো 0.0000
-3.5768 <s> সেগুলোকে 0.0000
-3.5768 <s> সেটা 0.0000
-3.5768 <s> সেটার 0.0000
-3.5768 <s> সেটায় 0.0000
-3.5768 <s> সেদিন 0.0000
-3.5768 <s> সেবায় 0.0000
-3.5768 <s> সেরকম 0.0000
-3.5768 <s> সেরকমই 0.0000
-3.5768 <s> সোজা 0.0000
-3.5768 <s> সোনা 0.0000
-3.5768 <s> সোনার 0.0000
-3.5768 <s> সৌন্দর্য 0.0000
-3.5768 <s> সৌন্দর্যকে 0.0000
-3.5768 <s> স্কিল 0.0000
-3.5768 <s> স্কিলের 0.0000
-3.5768 <s> স্টাইলে 0.0000
-3.5768 <s> স্টুডিওর 0.0000
-3.5768 <s> স্তন 0.0000
-3.5768 <s> স্তনে 0.0000
-3.5768 <s> স্ত্রী 0.0000
-3.5768 <s> স্ত্রীকে 0.0000
-3.5768 <s> স্ত্রীর 0.0000
-3.5768 <s> স্থপতির 0.0000
-3.5768 <s> স্নেহ 0.0000
-3.5768 <s> স্পর্শ 0.0000
-3.5768 <s> স্বচ্ছতা 0.0000
-3.5768 <s> স্বপ্নে 0.0000
-3.5768 <s> স্বরুপ 0.0000
-3.5768 <s> স্বর্ণ 0.0000
-3.5768 <s> স্বর্ণখনির 0.0000
-3.5768 <s> স্বর্ণের 0.0000
-3.5768 <s> স্বাগতম 0.0000
-3.5768 <s> স্বাদ 0.0000
-3.5768 <s> স্বাদটা 0.0000
-3.5768 <s> স্বাধীণতা 0.0000
-3.5768 <s> স্বাধীনতা 0.0000
-3.5768 <s> স্বার্থপর 0.0000
-3.5768 <s> স্যার 0.0000
-3.5768 <s> স্যুটের 0.0000
-3.5768 <s> স্লিম 0.0000
-3.5768 <s> হ 0.0000
-3.5768 <s> হই 0.0000
-3.5768 <s> হওয়ার 0.0000
-3.5768 <s> হচ্ছিলাম 0.0000
-3.5768 <s> হচ্ছে 0.0000
-3.5768 <s> হঠাৎ 0.0000
-3.5768 <s> হত 0.0000
-3.5768 <s> হতবিহব্বল 0.0000
-3.5768 <s> হতে 0.0000
-3.5768 <s> হতো 0.0000
-3.5768 <s> হবার 0.0000
-3.5768 <s> হবে 0.0000
-3.5768 <s> হল 0.0000
-3.5768 <s> হলাম 0.0000
-3.5768 <s> হলে 0.0000
-3.5768 <s> হলেই 0.0000
-3.5768 <s> হলো 0.0000
-3.5768 <s> হাঁটা 0.0000
-3.5768 <s> হাজারবার 0.0000
-3.5768 <s> হাত 0.0000
-3.5768 <s> হাত-পা 0.0000
-3.5768 <s> হাতদুটো 0.0000
-3.5768 <s> হাতে 0.0000
-3.5768 <s> হায় 0.0000
-3.5768 <s> হারাম 0.0000
-3.5768 <s> হারামজাদা 0.0000
-3.5768 <s> হারামজাদাটা 0.0000
-3.5768 <s> হারামজাদাটার 0.0000
-3.5768 <s> হারামিগুলা 0.0000
-3.5768 <s> হাসপাতাল 0.0000
-3.5768 <s> হাসি 0.0000
-3.5768 <s> হাড় 0.0000
-3.5768 <s> হিসেবে 0.0000
-3.5768 <s> হীন 0.0000
-3.5768 <s> হেই 0.0000
-3.5768 <s> হেরিংবোন 0.0000
-3.5768 <s> হেরে 0.0000
-3.5768 <s> হেসেছিল 0.0000
-3.5768 <s> হোক 0.0000
-3.5768 <s> হোটেলে 0.0000
-3.5768 <s> হ্যাঁ 0.0000
-3.5768 <s> হ্যামবার্গের 0.0000
-3.5768 <s> হয় 0.0000
-3.5768 <s> হয়তো 0.0000
-3.5768 <s> হয়ে 0.0000
-3.5768 <s> হয়েও 0.0000
-3.5768 <s> হয়েছি 0.0000
-3.5768 <s> হয়েছিল 0.0000
-3.5768 <s> হয়েছে 0.0000
-3.5768 <s> ০ 0.0000
-3.5768 <s> ১ 0.0000
-3.5768 <s> ১ম 0.0000
-3.5768 <s> ১০ 0.0000
-3.5768 <s> ১০টা 0.0000
-3.5768 <s> ১০০০০ 0.0000
-3.5768 <s> ১৪ 0.0000
-3.5768 <s> ১৫ 0.0000
-3.5768 <s> ১৫টা 0.0000
-3.5768 <s> ২ 0.0000
-3.5768 <s> ২টার 0.0000
-3.5768 <s> ৩ 0.0000
-3.5768 <s> ৩টা 0.0000
-3.5768 <s> ৩বছর 0.0000
-3.5768 <s> ৪ 0.0000
-3.5768 <s> ৪টা 0.0000
-3.5768 <s> ৫ 0.0000
-3.5768 <s> ৫০০০০ 0.0000
-3.5768 <s> ৬ 0.0000
-3.5768 <s> ৭ 0.0000
-3.5768 <s> ৮ 0.0000
-3.5768 <s> ৯ 0.0000
-0.3010 অংশটুকু </s> -0.3010
-0.3010 অংশীদারের </s> -0.3010
-0.3010 অকেজো </s> -0.3010
-0.3010 অঘ্রানে </s> -0.3010
-0.3010 অঙ্গ </s> -0.3010
-0.3010 অঙ্গে </s> -0.3010
-0.3010 অট্টালিকা </s> -0.3010
-0.3010 অতি </s> -0.3010
-0.3010 অতিক্রম </s> -0.3010
-0.3010 অতিথি </s> -0.3010
-0.3010 অথবা </s> -0.3010
-0.3010 অনুধাবণ </s> -0.3010
-0.3010 অনুপস্থিতি </s> -0.3010
-0.3010 অনুভব </s> -0.3010
-0.3010 অনুমতি </s> -0.3010
-0.3010 অনুশীলনের </s> -0.3010
-0.3010 অনুশোচনা </s> -0.3010
-0.3010 অনেক </s> -0.3010
-0.3010 অনেকদিন </s> -0.3010
-0.3010 অনেকদিনের </s> -0.3010
-0.3010 অন্তঃত </s> -0.3010
-0.3010 অন্তর্বাস </s> -0.3010
-0.3010 অন্ধকার </s> -0.3010
-0.3010 অন্য </s> -0.3010
-0.3010 অন্যকেউ </s> -0.3010
-0.3010 অন্যরকম </s> -0.3010
-0.3010 অপর </s> -0.3010
-0.3010 অপরকে </s> -0.3010
-0.3010 অপেক্ষা </s> -0.3010
-0.3010 অবশেষে </s> -0.3010
-0.3010 অবশ্যই </s> -0.3010
-0.3010 অবস্থায় </s> -0.3010
-0.3010 অবাক </s> -0.3010
-0.3010 অবিশ্বাস্য </s> -0.3010
-0.3010 অভিজ্ঞতা </s> -0.3010
-0.3010 অভিনয় </s> -0.3010
-0.3010 অভিভাবক </s> -0.3010
-0.3010 অভিভূত </s> -0.3010
-0.3010 অভ্যাস </s> -0.3010
-0.3010 অভ্যাসটা </s> -0.3010
-0.3010 অর্ডার </s> -0.3010
-0.3010 অলংকারের </s> -0.3010
-0.3010 অশিক্ষিত </s> -0.3010
-0.3010 অসম্ভব </s> -0.3010
-0.3010 অসহায় </s> -0.3010
-0.3010 অসাধারণ </s> -0.3010
-0.3010 অসুখ </s> -0.3010
-0.3010 আঁচল </s> -0.3010
-0.3010 আঁট-সাঁটে </s> -0.3010
-0.3010 আকার </s> -0.3010
-0.3010 আকাশ </s> -0.3010
-0.3010 আগ </s> -0.3010
-0.3010 আগুন </s> -0.3010
-0.3010 আগুনে </s> -0.3010
-0.3010 আগের </s> -0.3010
-0.3010 আঙিনাতে </s> -0.3010
-0.3010 আঙ্কেল </s> -0.3010
-0.3010 আঙ্কেলকে </s> -0.3010
-0.3010 আঙ্কেলের </s> -0.3010
-0.3010 আচরণ </s> -0.3010
-0.3010 আচ্ছা </s> -0.3010
-0.3010 আছি </s> -0.3010
-0.3010 আছে </s> -0.3010
-0.3010 আছেন </s> -0.3010
-0.3010 আজ </s> -0.3010
-0.3010 আজ-কাল </s> -0.3010
-0.3010 আজকে </s> -0.3010
-0.3010 আজকের </s> -0.3010
-0.3010 আজকেরটা </s> -0.3010
-0.3010 আজব </s> -0.3010
-0.3010 আট </s> -0.3010
-0.3010 আত্মহত্যা </s> -0.3010
-0.3010 আত্মা </s> -0.3010
-0.3010 আনছি </s> -0.3010
-0.3010 আনন্দ </s> -0.3010
-0.3010 আনন্দটা </s> -0.3010
-0.3010 আনন্দিত </s> -0.3010
-0.3010 আনন্দের </s> -0.3010
-0.3010 আনলাম </s> -0.3010
-0.3010 আনো </s> -0.3010
-0.3010 আন্টি </s> -0.3010
-0.3010 আন্টিকে </s> -0.3010
-0.3010 আন্টির </s> -0.3010
-0.3010 আপনাকে </s> -0.3010
-0.3010 আপনাদের </s> -0.3010
-0.3010 আপনার </s> -0.3010
-0.3010 আপনারও </s> -0.3010
-0.3010 আপনারা </s> -0.3010
-0.3010 আপনি </s> -0.3010
-0.3010 আপনিও </s> -0.3010
-0.3010 আফিসারদের </s> -0.3010
-0.3010 আবর্জনায় </s> -0.3010
-0.3010 আবার </s> -0.3010
-0.3010 আবারও </s> -0.3010
-0.3010 আবেগ </s> -0.3010
-0.3010 আবেগের </s> -0.3010
-0.3010 আমন্ত্রণ </s> -0.3010
-0.3010 আমরা </s> -0.3010
-0.3010 আমাকেও </s> -0.3010
-0.3010 আমাদের </s> -0.3010
-0.3010 আমার </s> -0.3010
-0.3010 আমায় </s> -0.3010
-0.3010 আমি </s> -0.3010
-0.3010 আমিই </s> -0.3010
-0.3010 আমিও </s> -0.3010
-0.3010 আমের </s> -0.3010
-0.3010 আর </s> -0.3010
-0.3010 আরও </s> -0.3010
-0.3010 আরম্ভ </s> -0.3010
-0.3010 আরেক </s> -0.3010
-0.3010 আরেকটা </s> -0.3010
-0.3010 আরেকবার </s> -0.3010
-0.3010 আর্ট </s> -0.3010
-0.3010 আলো </s> -0.3010
-0.3010 আশা </s> -0.3010
-0.3010 আশাহীন </s> -0.3010
-0.3010 আশে-পাশে </s> -0.3010
-0.3010 আসক্ত </s> -0.3010
-0.3010 আসছি </s> -0.3010
-0.3010 আসছে </s> -0.3010
-0.3010 আসতে </s> -0.3010
-0.3010 আসতো </s> -0.3010
-0.3010 আসবে </s> -0.3010
-0.3010 আসল </s> -0.3010
-0.3010 আসলে </s> -0.3010
-0.3010 আসলেই </s> -0.3010
-0.3010 আসা </s> -0.3010
-0.3010 আসাই </s> -0.3010
-0.3010 আসার </s> -0.3010
-0.3010 আসি </s> -0.3010
-0.3010 আসে </s> -0.3010
-0.3010 আস্ত </s> -0.3010
-0.3010 আস্তে </s> -0.3010
-0.3010 আাবা*টার </s> -0.3010
-0.3010 আড়ালে </s> -0.3010
-0.3010 ইংরেজ </s> -0.3010
-0.3010 ইংল্যান্ড </s> -0.3010
-0.3010 ইংল্যান্ডের </s> -0.3010
-0.3010 ইচ্ছে </s> -0.3010
-0.3010 ইম্পেরিয়াল </s> -0.3010
-0.3010 ইয়েন </s> -0.3010
-0.3010 উচিত </s> -0.3010
-0.3010 উজ্জ্বল </s> -0.3010
-0.3010 উঠবো </s> -0.3010
-0.3010 উঠানোর </s> -0.3010
-0.3010 উথলে </s> -0.3010
-0.3010 উদ্দাম </s> -0.3010
-0.3010 উদ্দেশ্যে </s> -0.3010
-0.3010 উপগৃহ </s> -0.3010
-0.3010 উপধাবন </s> -0.3010
-0.3010 উপর </s> -0.3010
-0.3010 উপরে </s> -0.3010
-0.3010 উপরের </s> -0.3010
-0.3010 উপলক্ষ্যে </s> -0.3010
-0.3010 উপহার </s> -0.3010
-0.3010 উর্ধ্ধে </s> -0.3010
-0.3010 উলঙ্গ </s> -0.3010
-0.3010 উষ্ণ </s> -0.3010
-0.3010 এ </s> -0.3010
-0.3010 এঁকেছে </s> -0.3010
-0.3010 এঁটেছে </s> -0.3010
-0.3010 এই </s> -0.3010
-0.3010 এইক্ষেত্রে </s> -0.3010
-0.3010 এইতো </s> -0.3010
-0.3010 এইদিকে </s> -0.3010
-0.3010 এক </s> -0.3010
-0.3010 একই </s> -0.3010
-0.3010 একজন </s> -0.3010
-0.3010 একজনে </s> -0.3010
-0.3010 একজোড়া </s> -0.3010
-0.3010 একটা </s> -0.3010
-0.3010 একটানে </s> -0.3010
-0.3010 একটু </s> -0.3010
-0.3010 একটুও </s> -0.3010
-0.3010 একদম </s> -0.3010
-0.3010 একদমই </s> -0.3010
-0.3010 একদিন </s> -0.3010
-0.3010 একপক্ষ </s> -0.3010
-0.3010 একবার </s> -0.3010
-0.3010 একবারও </s> -0.3010
-0.3010 একমাত্র </s> -0.3010
-0.3010 একসাথে </s> -0.3010
-0.3010 একা </s> -0.3010
-0.3010 একাই </s> -0.3010
-0.3010 একে </s> -0.3010
-0.3010 একেবারে </s> -0.3010
-0.3010 এক্ষুনি </s> -0.3010
-0.3010 এখন </s> -0.3010
-0.3010 এখনও </s> -0.3010
-0.3010 এখনকার </s> -0.3010
-0.3010 এখনি </s> -0.3010
-0.3010 এখান </s> -0.3010
-0.3010 এখানকার </s> -0.3010
-0.3010 এখানে </s> -0.3010
-0.3010 এগুলো </s> -0.3010
-0.3010 এজন্য </s> -0.3010
-0.3010 এজন্যই </s> -0.3010
-0.3010 এটা </s> -0.3010
-0.3010 এটাই </s> -0.3010
-0.3010 এটাও </s> -0.3010
-0.3010 এটাকে </s> -0.3010
-0.3010 এটার </s> -0.3010
-0.3010 এটি </s> -0.3010
-0.3010 এত </s> -0.3010
-0.3010 এতই </s> -0.3010
-0.3010 এতকিছু </s> -0.3010
-0.3010 এতক্ষণে </s> -0.3010
-0.3010 এতিম </s> -0.3010
-0.3010 এদের </s> -0.3010
-0.3010 এদেশটা </s> -0.3010
-0.3010 এনে </s> -0.3010
-0.3010 এনেছি </s> -0.3010
-0.3010 এনেছো </s> -0.3010
-0.3010 এন্টিকগুলো </s> -0.3010
-0.3010 এবং </s> -0.3010
-0.3010 এবার </s> -0.3010
-0.3010 এভাবে </s> -0.3010
-0.3010 এমন </s> -0.3010
-0.3010 এমনকি </s> -0.3010
-0.3010 এমনটা </s> -0.3010
-0.3010 এর </s> -0.3010
-0.3010 এরকম </s> -0.3010
-0.3010 এরকমই </s> -0.3010
-0.3010 এরপর </s> -0.3010
-0.3010 এরপরও </s> -0.3010
-0.3010 এলে </s> -0.3010
-0.3010 এলো </s> -0.3010
-0.3010 এসব </s> -0.3010
-0.3010 এসে </s> -0.3010
-0.3010 এসেছি </s> -0.3010
-0.3010 এসেছিল </s> -0.3010
-0.3010 এসেছে </s> -0.3010
-0.3010 এসেছেন </s> -0.3010
-0.3010 এসো </s> -0.3010
-0.3010 ঐ </s> -0.3010
-0.3010 ঐসব </s> -0.3010
-0.3010 ও </s> -0.3010
-0.3010 ওখানে </s> -0.3010
-0.3010 ওখানেই </s> -0.3010
-0.3010 ওগুলো </s> -0.3010
-0.3010 ওগুলোর </s> -0.3010
-0.3010 ওটা </s> -0.3010
-0.3010 ওপার </s> -0.3010
-0.3010 ওপারে </s> -0.3010
-0.3010 ওপাশে </s> -0.3010
-0.3010 ওভাবেই </s> -0.3010
-0.3010 ওর </s> -0.3010
-0.3010 ওরকম </s> -0.3010
-0.3010 ওহ </s> -0.3010
-0.3010 ওয়াইন </s> -0.3010
-0.3010 ওয়াইনের </s> -0.3010
-0.3010 কই </s> -0.3010
-0.3010 কখন </s> -0.3010
-0.3010 কখনই </s> -0.3010
-0.3010 কখনও </s> -0.3010
-0.3010 কচি </s> -0.3010
-0.3010 কঠিন </s> -0.3010
-0.3010 কত </s> -0.3010
-0.3010 কতক </s> -0.3010
-0.3010 কতগুলো </s> -0.3010
-0.3010 কথা </s> -0.3010
-0.3010 কথাই </s> -0.3010
-0.3010 কথাটা </s> -0.3010
-0.3010 কথায় </s> -0.3010
-0.3010 কম </s> -0.3010
-0.3010 কম্বল </s> -0.3010
-0.3010 কর </s> -0.3010
-0.3010 করছি </s> -0.3010
-0.3010 করছে </s> -0.3010
-0.3010 করছেই </s> -0.3010
-0.3010 করছেন </s> -0.3010
-0.3010 করছো </s> -0.3010
-0.3010 করত </s> -0.3010
-0.3010 করতে </s> -0.3010
-0.3010 করতো </s> -0.3010
-0.3010 করবে </s> -0.3010
-0.3010 করবেই </s> -0.3010
-0.3010 করবেন </s> -0.3010
-0.3010 করবো </s> -0.3010
-0.3010 করলে </s> -0.3010
-0.3010 করলেও </s> -0.3010
-0.3010 করলো </s> -0.3010
-0.3010 করা </s> -0.3010
-0.3010 করাচ্ছো </s> -0.3010
-0.3010 করাতো </s> -0.3010
-0.3010 করান </s> -0.3010
-0.3010 করার </s> -0.3010
-0.3010 করায় </s> -0.3010
-0.3010 করি </s> -0.3010
-0.3010 করুক </s> -0.3010
-0.3010 করুন </s> -0.3010
-0.3010 করে </s> -0.3010
-0.3010 করেছি </s> -0.3010
-0.3010 করেছিল </s> -0.3010
-0.3010 করেছিলাম </s> -0.3010
-0.3010 করেছিলেন </s> -0.3010
-0.3010 করেছে </s> -0.3010
-0.3010 করেছো </s> -0.3010
-0.3010 করেন </s> -0.3010
-0.3010 করো </s> -0.3010
-0.3010 কর্তব্য </s> -0.3010
-0.3010 কর্তা </s> -0.3010
-0.3010 কর্তার </s> -0.3010
-0.3010 কল্পনা </s> -0.3010
-0.3010 কষ্ট </s> -0.3010
-0.3010 কষ্টকর </s> -0.3010
-0.3010 কস্ট </s> -0.3010
-0.3010 কাঁচির </s> -0.3010
-0.3010 কাঁটতে </s> -0.3010
-0.3010 কাঁপছে </s> -0.3010
-0.3010 কাঁপে </s> -0.3010
-0.3010 কাউকে </s> -0.3010
-0.3010 কাউকেই </s> -0.3010
-0.3010 কাউন্ট </s> -0.3010
-0.3010 কাউন্টকে </s> -0.3010
-0.3010 কাউন্টের </s> -0.3010
-0.3010 কাউন্ট্রেস </s> -0.3010
-0.3010 কাকে </s> -0.3010
-0.3010 কাগজপত্র </s> -0.3010
-0.3010 কাছ </s> -0.3010
-0.3010 কাছে </s> -0.3010
-0.3010 কাজ </s> -0.3010
-0.3010 কাজের </s> -0.3010
-0.3010 কাটছে </s> -0.3010
-0.3010 কাটিলে </s> -0.3010
-0.3010 কাটিয়েছি </s> -0.3010
-0.3010 কাটে </s> -0.3010
-0.3010 কাটোঁ </s> -0.3010
-0.3010 কান </s> -0.3010
-0.3010 কানা-কানি </s> -0.3010
-0.3010 কানে </s> -0.3010
-0.3010 কানের </s> -0.3010
-0.3010 কান্ড </s> -0.3010
-0.3010 কান্না </s> -0.3010
-0.3010 কাপড় </s> -0.3010
-0.3010 কাপড়ও </s> -0.3010
-0.3010 কামণা </s> -0.3010
-0.3010 কামনা </s> -0.3010
-0.3010 কামনাময়ী </s> -0.3010
-0.3010 কামার্ত </s> -0.3010
-0.3010 কামাড়াচ্ছে </s> -0.3010
-0.3010 কামড় </s> -0.3010
-0.3010 কারও </s> -0.3010
-0.3010 কারণ </s> -0.3010
-0.3010 কারন </s> -0.3010
-0.3010 কারনে </s> -0.3010
-0.3010 কাল </s> -0.3010
-0.3010 কালেক্টর </s> -0.3010
-0.3010 কালেক্টরদের </s> -0.3010
-0.3010 কাহিল </s> -0.3010
-0.3010 কি </s> -0.3010
-0.3010 কিউট </s> -0.3010
-0.3010 কিছু </s> -0.3010
-0.3010 কিছুই </s> -0.3010
-0.3010 কিছুক্ষন </s> -0.3010
-0.3010 কিছুটা </s> -0.3010
-0.3010 কিছুদিনের </s> -0.3010
